3308 128
</s> 0.003127 0.003453 -0.002992 -0.002561 0.001068 0.002360 0.000735 0.000165 -0.002815 0.001733 -0.003403 0.000976 -0.000587 -0.000748 -0.002590 -0.001470 0.002015 0.002364 0.002320 0.001248 0.001207 -0.002971 -0.003200 0.003883 0.002970 0.002414 -0.000472 0.003137 -0.000387 0.000574 -0.000117 -0.002331 0.001025 -0.001045 -0.002989 0.003714 0.003421 -0.000856 -0.000177 0.000398 -0.002842 -0.003131 0.003558 0.000049 -0.002017 -0.002377 -0.002403 0.001326 0.000157 0.001040 -0.003292 -0.002975 -0.000102 0.000893 0.001992 -0.002477 0.003187 0.000724 0.000875 -0.000475 0.002333 -0.001787 -0.001639 0.001686 -0.000588 0.000805 0.001410 -0.003194 -0.001549 0.002276 0.003306 0.003072 -0.002380 -0.001647 -0.000710 0.001564 -0.002960 0.002342 0.002178 -0.001249 -0.001212 -0.001749 0.003304 0.003056 -0.000922 0.003293 0.003766 0.001418 0.003893 -0.002431 -0.001197 -0.001646 -0.002271 0.002199 0.001234 0.000332 -0.001714 0.001191 0.002390 0.000151 0.001781 -0.003869 0.003371 0.000375 -0.001431 -0.001628 -0.000584 -0.002293 -0.003414 -0.002216 0.003341 -0.001383 -0.002093 0.001810 -0.001331 0.003716 -0.001254 -0.003585 0.002122 -0.000058 -0.002726 0.000762 0.001127 -0.000376 0.001425 -0.003092 0.000688 0.001419 
2858 0.274335 0.538139 0.218707 0.354691 -0.066971 -0.224909 -0.037794 -0.301612 -0.040124 -0.057532 0.137615 -0.390756 -0.049210 0.036863 -0.412316 -0.366436 -0.064720 0.081301 0.351028 -0.013248 -0.256639 0.199255 -0.725198 0.112171 -0.043825 -0.202310 0.060616 0.386598 -0.639568 0.135687 -0.293037 -0.329466 -0.088901 -0.253821 -0.272677 -0.410167 0.641389 0.560023 -0.239799 0.095556 -0.433521 0.363142 -0.030137 -0.504493 -0.390435 0.620737 0.450103 -0.027203 -0.169139 -0.201716 0.425736 -0.060821 -0.120982 0.028122 -0.440385 -0.146803 0.611277 0.421058 -0.034063 0.502363 0.241281 -0.087165 0.234343 -0.190891 0.093798 0.136668 0.632536 -0.003516 0.211876 -0.015216 -0.396583 -0.044939 -0.295299 -0.086235 -0.023851 -0.415552 -0.222327 0.345842 -0.072325 -0.297740 -0.161580 0.469687 -0.461797 -0.303018 -0.011423 -0.175715 -0.127292 0.733779 0.348240 -0.073831 -0.283405 0.062876 0.483218 0.314040 0.608707 0.370626 -0.319776 0.313915 0.181270 0.283241 0.435771 0.416827 -0.029221 -0.214545 0.363790 0.268224 0.222168 -0.015717 0.510087 -0.532171 -0.516785 0.356604 -0.287157 0.384554 0.252354 0.046255 -0.278260 -0.239770 0.165849 -0.242691 -0.066142 -0.009171 0.427442 -0.338184 -0.170234 -0.057624 0.161352 -0.129485 
260 0.643277 -0.133797 0.058018 0.408189 0.092666 0.099187 -0.001951 -0.455819 0.127054 -0.011728 0.085203 -0.291904 -0.449471 0.401096 -0.804547 -0.329748 0.062590 -0.173717 0.297398 0.144678 -0.635487 -0.112091 -0.241080 0.058656 0.237473 -0.004106 -0.158597 0.052256 -0.087107 -0.299732 -0.145519 -0.012217 0.127831 0.015385 -0.267412 -0.383973 0.206563 -0.127037 0.182175 -0.654370 -0.319174 -0.021739 -0.075590 0.158784 -0.457812 0.407630 -0.275107 -0.010425 -0.055439 -0.283147 0.174955 0.246639 0.008524 0.025410 0.076933 0.148090 0.599438 0.135624 0.193401 0.383665 0.070725 0.043354 0.346905 -0.405746 -0.347057 -0.420714 0.603297 -0.482620 -0.152984 -0.241289 -0.007021 0.504469 -0.552705 -0.352515 -0.424102 -0.080733 0.125439 0.117635 -0.237544 0.166581 -0.202719 0.271810 -0.827475 -0.071755 -0.057979 -0.208500 -0.772994 0.276772 0.543454 -0.202704 -0.128176 -0.686212 0.051094 0.294009 0.412328 -0.114996 0.426218 0.622196 -0.417459 0.021738 -0.135782 0.311168 -0.231010 -0.112383 0.113990 0.103719 0.332573 -0.145360 0.401699 0.180145 -0.289110 -0.350133 -0.510905 0.125163 0.254693 0.449527 0.073744 -0.318319 0.028209 -0.451752 -0.071258 0.458036 0.691482 -0.312188 -0.144742 0.085876 -0.730176 -0.047707 
1196 0.075399 0.127910 -0.402731 -0.229827 -0.052819 -0.252462 0.137625 -0.614751 -0.000963 0.323925 0.276056 0.155496 -0.432958 0.203632 -0.291220 -0.204997 -0.347066 0.498627 0.233199 0.630371 -0.428372 0.497899 -0.322971 -0.383462 0.076519 0.417717 -0.026843 -0.286563 -0.234823 0.124892 -0.162966 -0.146206 0.083263 -0.081656 -0.043137 -0.272172 0.215454 0.070658 -0.223523 0.006586 0.106854 -0.382713 -0.219005 0.218227 -0.083295 0.360081 0.107508 -0.188905 -0.361220 -0.092409 0.364362 -0.234558 -0.355215 0.005521 -0.072684 0.262018 0.294994 0.354688 0.158935 0.445657 0.358806 -0.390377 0.098553 -0.233953 0.362063 0.317253 0.288323 -0.185508 -0.074749 0.104758 -0.777090 0.237584 -0.097068 -0.176660 -0.478413 -0.653799 0.348550 0.137781 0.147455 0.340675 -0.147734 0.146332 -0.405508 -0.413820 0.555997 -0.051147 0.276499 0.285147 0.336596 -0.148271 0.038606 0.078468 -0.632360 0.245838 0.945960 0.221491 0.134488 0.273728 -0.230669 -0.025934 0.278432 0.942398 -0.457590 0.074165 0.679826 0.281748 -0.144035 0.327754 0.237554 -0.000246 -0.372955 0.062348 -0.234361 -0.198255 0.019313 0.634720 0.487106 -0.140389 -0.733813 0.285632 0.466056 0.228748 -0.108721 0.086238 0.144048 -0.067430 -0.323493 -0.144060 
1210 -0.388489 -0.235158 -0.361083 0.254746 0.096486 0.399968 -0.518676 -0.865829 0.402503 0.070952 -0.272616 -0.132978 0.339048 -0.209671 -0.700213 0.121366 -0.111389 0.083276 0.647827 -0.158049 0.259445 -0.159545 -0.404245 -0.084323 -0.724843 -0.189859 -0.343155 -0.331769 0.023488 -0.273502 -0.221333 0.237659 0.012290 0.016119 0.126810 0.170043 -0.647172 -0.215136 -0.380181 0.077119 0.465114 0.273917 -0.040868 -0.333081 -0.191621 -0.196973 0.636294 -0.059114 0.491695 -0.051524 -0.254431 -0.040943 0.061252 -0.202299 -0.028746 0.242181 0.594020 0.052304 0.307142 -0.071641 0.618374 -0.681010 0.199596 -0.458890 -0.138760 0.264404 -0.262685 0.154458 -0.077505 0.051357 0.138180 0.350009 0.625882 -0.082448 -0.631298 -0.164809 0.176242 0.094643 -0.039007 0.297757 -0.447657 -0.258467 -0.647864 0.233922 -0.231504 -0.053967 -0.761807 0.293516 0.360093 0.050384 0.210889 0.201616 0.115554 -0.518225 -0.037847 0.111940 0.114993 0.223971 -0.244134 -0.343226 -0.089047 0.493695 -0.242770 -0.257531 -0.033387 0.218286 -0.187662 -0.176567 0.055193 -0.151318 0.284877 0.003909 0.607158 0.485881 0.138649 0.514700 0.082938 0.115609 0.156649 0.623702 0.217352 0.288373 0.388400 0.269290 -0.117136 0.221307 0.153714 -0.213549 
2028 -0.105272 -0.203593 -0.566085 0.159127 -0.467675 -0.027460 -0.241786 -0.336126 0.758678 0.421062 -0.133321 -0.242241 0.308282 -0.102470 -0.152630 0.553742 0.142647 0.322965 0.618391 -0.056059 -0.221462 0.707165 0.187313 -0.663614 -0.695878 -0.055863 -0.560953 -0.471695 0.006989 -0.084442 0.470444 -0.015465 -0.646368 0.348774 -0.333542 0.202377 -0.479129 -0.356863 0.340849 0.187632 -0.017137 0.115234 0.152635 -0.175759 0.222681 0.020008 0.611860 0.586787 0.136275 0.679752 0.239147 0.015267 -0.108666 -0.059099 -0.287268 0.405603 0.372047 0.330784 -0.232551 0.861607 0.095609 -0.082209 0.055294 -0.168557 -0.321936 0.759562 -0.494051 -0.018189 0.070566 -0.007543 0.068206 -0.248593 0.352388 -0.031770 -0.218522 -0.361842 0.251873 -0.253259 0.110244 -0.171045 0.049029 -0.292564 -1.260687 0.224324 0.241197 0.297786 -0.290897 -0.420804 0.241912 -0.686904 0.071197 0.490039 -0.368925 0.325365 -0.015831 0.060056 0.232621 0.030243 0.120782 -0.912999 0.160683 0.578464 -0.672773 0.071555 -0.170470 0.496281 0.105025 0.342580 -0.137262 -0.100726 0.064716 -0.351375 0.233278 0.715349 0.733747 -0.040134 0.062732 0.151611 0.026307 0.116535 -0.123441 -0.003350 0.557799 0.405816 -0.084346 0.154026 0.184882 0.192463 
589 0.112075 -0.282755 -0.166373 -0.066002 0.028713 -0.595298 -0.313800 -0.457278 0.324663 -0.058525 0.153682 -0.244097 -0.273372 -0.168106 -0.460894 -0.386498 -0.112664 -0.027870 0.624869 0.222049 -0.190608 -0.117193 -0.090697 0.251567 -0.029487 0.309817 -0.255884 -0.567303 -0.115945 0.402973 -1.002288 0.037086 0.018229 0.160830 0.136389 -0.688123 0.046315 -0.135420 0.004557 -0.552081 -0.097324 0.376666 -0.265237 -0.476848 -0.298174 0.160842 -0.262539 -0.022907 0.420941 -0.103903 -0.503897 1.089356 0.292142 -0.648513 0.088827 -0.522266 0.305422 0.073288 -0.396058 -0.499157 0.439351 -0.096053 -0.142177 0.671407 0.113642 -0.215077 0.464306 0.192817 0.105773 -0.864825 0.228784 0.055109 -0.407655 -0.296873 -0.434100 -0.851815 0.091159 0.033096 0.141874 -0.153421 0.010460 -0.242137 -0.680945 -0.003516 0.601262 -0.160881 -0.261744 0.151692 0.511677 0.470532 -0.166707 -0.157094 0.147213 0.369142 0.022327 0.377503 0.133696 0.270097 0.173937 0.136520 -0.075466 1.062633 -0.161800 0.084989 0.522386 -0.256009 -0.569805 0.129145 -0.029346 0.219805 -0.596018 0.444247 0.064338 0.712631 -0.127359 -0.012801 -0.157787 0.118691 -0.610845 0.158764 0.447362 0.527637 0.249511 -0.800370 0.036354 -0.520841 0.034260 0.619898 
593 0.239095 0.127399 0.002787 -0.191777 -0.207599 0.271384 0.097544 -0.256523 0.363077 0.013418 0.512937 -0.375042 0.185662 0.262411 0.172194 -0.480758 0.312152 0.205663 0.586254 -0.043564 0.093971 -0.008715 -0.243177 0.312144 -0.101844 0.330723 0.282575 -0.780564 -0.297388 0.377812 -0.212433 0.061476 0.275490 -0.538161 0.326254 -0.569818 0.525528 0.052523 -0.583877 -0.161904 0.001482 -0.217552 -0.416985 -0.556542 0.051670 0.238761 0.167621 0.419005 0.337267 -0.235633 -0.153278 0.529274 -0.140958 -0.278133 0.148228 -0.079568 -0.296091 0.254233 0.042811 -0.179532 0.275167 -0.183654 0.565709 0.667350 -0.081427 -0.100311 0.754184 -0.223474 -0.065786 -0.514902 0.421021 0.550551 -0.144375 0.163275 -0.226696 -0.932557 -0.503460 0.276909 0.090044 0.251966 -0.038419 0.255370 -1.086334 0.255205 0.464341 -0.323049 -0.389144 0.015420 0.746188 0.333270 -0.233835 -0.119554 -0.301273 -0.002849 0.080087 0.036533 0.661124 0.165355 -0.088142 0.069622 -0.242446 0.714766 -0.126977 0.367602 0.606618 -0.125738 -0.053112 -0.252505 0.283569 -0.047410 -0.168784 0.126901 -0.433200 0.283713 -0.267061 -0.058814 -0.045471 -0.022275 -0.118076 0.441652 0.008458 0.866984 0.172629 -0.067049 0.081520 -0.753169 -0.113762 0.086062 
1198 0.202697 -0.036235 -0.146427 0.023799 0.037560 -0.288286 0.100428 -0.789447 -0.506001 0.318395 0.003250 -0.080245 -0.270758 -0.054316 -0.299967 -0.416174 -0.242429 0.488454 0.619929 0.162437 -0.229347 0.345753 -0.086885 0.287154 -0.343756 0.310997 0.069347 -0.007484 0.055240 -0.261654 -0.352902 0.083694 -0.071291 -0.425332 0.042222 -0.503571 0.385697 0.475174 -0.104551 0.027374 0.077659 -0.779275 -0.613567 0.591604 -0.043570 0.292688 0.167609 -0.261157 0.076770 0.055576 0.113370 0.108431 -0.167536 -0.055360 -0.060464 -0.226630 0.545545 0.619838 0.122994 0.527908 0.340860 -0.368468 -0.015501 -0.199095 0.122624 0.427734 0.075022 -0.189973 0.400254 -0.116349 -0.664005 -0.044792 -0.580971 0.134037 -0.121867 -0.144727 0.262543 0.261919 0.197141 0.225586 -0.727561 -0.014171 -0.202932 0.036889 0.066716 0.256299 0.113178 0.656485 0.701938 0.191503 0.076657 0.318821 -0.226960 0.115903 0.843840 0.360886 0.133373 0.210892 -0.205195 -0.162194 0.195241 0.418917 -0.471822 0.332669 0.244594 0.146909 -0.088897 -0.183738 0.013722 -0.132541 -0.177518 0.011564 0.096799 -0.245481 -0.039844 0.626941 0.352117 0.438030 -0.783201 0.029631 -0.174849 0.208703 -0.156898 -0.111670 -0.177570 -0.050884 -0.285630 0.101677 
1270 -0.094935 0.421409 -0.175463 -0.230034 -0.064952 0.412806 -0.315971 -0.370815 0.489427 0.087412 0.104882 -0.734571 -0.453376 -0.093383 -0.224505 -0.507643 -0.184003 -0.202539 0.731132 0.146134 -0.094743 -0.384569 0.436898 0.439450 -0.088232 0.445786 -0.211780 -0.745433 -0.119759 0.431448 -0.508861 -0.178320 -0.013448 0.228983 0.598331 -0.348327 -0.084749 0.360660 0.000480 -0.175549 -0.260317 0.401347 0.341035 -0.456385 0.418533 0.261456 0.695870 0.266989 0.510371 0.208505 0.085790 0.394269 -0.228805 -0.171673 0.491641 0.168853 0.188639 0.161821 -0.021254 0.492531 0.215330 -0.228597 0.516685 -0.018666 0.413829 -0.346427 -0.081813 -0.149526 -0.192124 -0.903073 0.064391 0.098106 0.115403 -0.319405 -0.156302 -0.237940 -0.053497 0.487188 -0.037703 0.098640 0.359983 -0.495244 -0.424226 0.131790 -0.146613 0.215735 -0.186539 0.026536 0.950808 0.389709 0.191621 0.298743 -0.048250 0.101762 -0.276113 -0.200377 0.332165 0.183064 0.060638 -0.135102 0.250897 0.518949 -0.469424 -0.055948 0.519767 -0.359272 0.190715 -0.077220 0.094592 0.123843 0.431039 0.014887 0.182860 -0.262379 0.058005 -0.269623 0.156570 0.096305 -0.252261 0.173386 0.053749 0.365720 0.373368 -0.157536 0.222024 -0.661304 -0.077717 -0.031845 
2571 -0.166081 0.152833 0.331449 -0.267627 -0.020074 -0.047540 -0.456664 -0.298394 -0.295248 0.126542 0.064032 -0.466056 0.246597 0.182124 -0.149145 -0.059668 -0.409229 0.418926 0.298755 0.487213 -0.667055 0.622706 -0.215391 -0.149407 -0.172472 0.605847 -0.195556 -0.277783 0.332290 -0.007820 -0.423051 -0.034587 -0.216881 0.275453 -0.115110 -0.163100 -0.503194 -0.085671 -0.308144 0.135409 -0.327205 -0.437814 -0.068071 0.051022 -0.238237 -0.591570 0.077910 -0.664056 0.211030 0.053453 0.413259 -0.227945 -0.275940 -0.358958 0.193876 -0.189157 -0.003032 -0.027775 0.385952 0.080699 -0.352901 -0.551837 0.137498 0.114481 0.195826 0.218758 0.426461 0.633668 0.293258 0.395508 -0.331410 0.636929 -0.413618 -0.255718 0.338434 -0.025196 -0.152963 -0.138010 -0.573344 -0.069228 -0.153042 -0.271918 -0.696060 -0.230152 -0.729973 0.381550 0.199669 0.310792 0.751546 0.222173 0.731474 -0.129467 -0.216716 -0.030419 0.124741 0.764238 0.591704 0.023974 0.171106 -0.550987 0.213834 0.586395 -0.468817 0.493078 0.059781 0.128666 0.088781 0.482952 0.035628 -0.133585 0.058507 -0.014527 0.438188 0.619820 0.355974 0.421054 -0.025897 0.064303 -0.348313 -0.095864 -0.295837 0.244580 0.168258 -0.003984 0.641353 0.005003 -0.486530 0.335352 
480 -0.002108 -0.326799 -0.124046 0.252180 0.173268 -0.700037 -0.393021 -0.394444 0.389227 0.083799 0.135281 -0.544102 0.142749 0.321952 -0.463107 0.214547 0.299346 0.483415 0.053023 -0.118634 0.028273 0.226984 -0.309552 0.002476 -0.006880 -0.152994 -0.287475 -0.048874 0.114831 -0.092992 0.065930 -0.173936 -0.046516 -0.346231 -0.345094 -0.432392 0.077497 0.253193 -0.196727 -0.169106 -0.369501 0.014099 -0.390530 0.311359 0.088007 0.267963 0.211520 0.005943 0.039048 0.005286 0.428616 0.308805 -0.314355 0.038279 0.053025 0.127135 0.122434 0.110054 -0.016266 0.213184 0.642212 -0.100674 -0.020483 -0.013190 -0.187298 0.283609 -0.238695 -0.331787 -0.217235 0.245610 0.153206 -0.181430 -0.278783 -0.137446 -0.473201 0.111218 0.240447 0.621842 -0.323726 -0.278275 -0.025853 0.529076 -0.556659 0.095161 0.578488 -0.324909 0.830668 0.450629 0.433533 0.378603 0.289859 -0.410285 -0.357524 0.724340 0.670433 0.123477 0.498743 -0.118293 0.184115 0.067160 0.330627 0.834758 -0.678434 0.305150 -0.437051 0.546487 0.160813 0.512118 0.079742 -0.128781 -0.413763 0.093211 -0.120249 -0.489668 0.371101 -0.070072 -0.231289 -0.056723 -0.180154 0.004513 -0.262025 0.197742 0.480084 0.052460 -0.310124 0.417259 -0.023556 -0.606537 
2762 -0.268261 -0.380877 0.243983 -0.006540 -0.648423 -0.102724 0.178997 -0.147794 0.095992 -0.406351 -0.221152 -0.475480 -0.280744 0.107361 0.372340 0.376304 0.318240 -0.286991 0.140464 -0.397681 -0.153054 0.204886 -0.011814 -0.027356 -0.146043 0.055958 -0.492296 0.056951 0.296182 -0.199272 0.093220 0.078237 -0.212808 -0.355674 0.209773 -0.319225 -0.013832 0.015821 -0.008490 0.294421 0.371074 -0.167752 -0.354113 0.080401 0.222263 0.016577 0.864610 -0.127133 0.010838 0.066553 -0.220198 0.184925 -0.227782 0.312716 -0.288958 0.638084 0.271107 0.380814 -0.172196 0.401382 -0.631777 -0.380780 -0.254898 0.238842 -0.342525 0.284342 -0.568218 -0.027915 0.413167 0.148748 0.174109 0.280320 0.012463 0.107143 -0.301591 0.238856 -0.065498 -0.637043 -0.569287 0.020709 -0.014061 0.342840 -0.978842 -0.202086 -0.633324 -0.408484 -0.357793 -0.143062 0.363503 -0.002547 -0.357886 0.617734 -0.040912 0.377209 0.398256 0.671506 0.708519 -0.105247 0.271774 -1.127800 0.257168 0.416036 -0.269557 0.353548 0.109463 0.239021 0.080694 -0.203262 0.284130 0.036431 0.090748 -0.132318 0.276611 0.264968 0.469022 0.366119 0.328710 0.249476 0.038390 0.697359 0.163984 0.235484 -0.364444 -0.472597 0.151738 -0.197175 -0.279125 0.319909 
608 0.598779 -0.056597 -0.070245 0.272141 -0.400168 0.203166 0.101862 -0.258678 0.362547 0.299834 -0.044123 0.033913 0.422585 0.355234 -0.665050 -0.408408 -0.440760 -0.062480 0.445573 0.044228 -0.113785 0.240972 -0.269839 -0.219150 0.164673 -0.284085 -0.026553 -0.376703 -0.470774 -0.343467 -0.403487 0.081887 0.228121 -0.084859 -0.284434 -0.445903 0.429551 0.378972 -0.074081 0.429864 -0.094578 0.124823 -0.325261 0.009301 -0.127518 0.554688 -0.400843 0.269254 -0.507240 -0.625210 0.821351 -0.192426 -0.257098 -0.465438 -0.565752 -0.093524 0.446742 0.250698 0.170868 0.644908 -0.078339 -0.250388 -0.098443 -0.397429 0.206688 0.250966 0.198065 0.006216 -0.142446 0.121148 -0.413593 -0.093918 -0.232038 0.031129 -0.347528 -0.362021 0.352605 0.605830 -0.437449 -0.195567 -0.525494 0.571871 -0.855101 -0.021981 0.054770 -0.080936 0.233957 0.006268 0.422615 0.071750 -0.114808 -0.216965 0.267694 0.564826 0.907734 0.274573 0.039330 -0.140359 -0.078765 0.331938 -0.070897 0.858880 -0.173349 -0.174866 -0.019008 -0.693457 0.010280 -0.171048 0.016821 -0.137072 -0.241485 0.232935 0.001794 -0.122919 0.303894 0.322726 -0.172274 -0.001208 0.035666 0.427468 -0.425511 0.015543 0.277204 -0.304286 -0.331530 0.702650 0.270551 -0.042488 
110 -0.470129 -0.500250 0.042998 -0.022955 0.080811 -0.599932 -0.239533 -0.428744 -0.369458 0.369260 -0.076701 -0.551275 -0.071748 -0.438040 -0.576547 0.183600 0.392181 0.240066 0.049602 -0.276247 -0.299014 0.081190 0.187946 0.080341 -0.489092 -0.354799 -0.007518 -0.215029 0.370370 0.023414 0.277171 0.130534 -0.312416 -0.045767 -0.574844 -0.311302 -0.260688 0.097512 0.258856 -0.097219 0.287252 -0.024006 0.172087 0.413735 0.591065 0.112420 0.184388 -0.088753 0.422878 0.761911 0.482418 -0.176775 -0.200553 -0.046931 -0.340603 0.032495 0.190931 -0.068815 -0.220389 0.206502 -0.251150 -0.936161 -0.269236 0.265180 -0.259856 0.201471 0.640366 -0.192185 -0.088389 0.453372 0.198390 0.046971 -0.264189 -0.145080 -0.110857 -0.166810 0.006423 0.169503 -0.496690 0.132556 0.153648 0.332886 -0.663604 -0.097636 -0.204363 0.155769 0.302277 -0.331917 0.430868 0.101594 -0.363679 -0.162898 -0.175044 -0.267765 0.455685 0.228505 0.139589 -0.476401 -0.075275 -0.487733 0.296737 0.551814 -0.352314 0.223164 0.095335 -0.479826 -0.054313 -0.145011 -0.093340 -0.157969 0.074028 0.187283 0.420430 0.293471 0.173645 0.815655 0.505470 -0.164932 -0.285559 -0.103249 0.232192 0.000044 0.106399 -0.500199 0.209542 0.158169 -0.194974 -0.411558 
1580 -0.233543 -0.415877 0.128066 -0.022511 0.077840 -0.261715 0.231136 -0.688179 -0.351912 0.111613 0.100754 -0.049214 -0.124168 -0.415160 -0.042796 -0.097752 -0.211863 0.397832 -0.329627 -0.039793 -0.181928 0.216142 -0.131495 -0.233894 -0.747446 -0.077071 0.184229 0.176403 0.815238 0.539414 0.044040 -0.037165 0.113841 -0.029118 -0.436286 -0.453795 -0.285572 0.193150 0.352297 0.146223 0.006604 -0.428242 0.348559 0.019805 0.501731 -0.197281 0.187877 -0.568328 0.056047 0.063604 0.014483 -0.067143 0.105863 -0.378012 -0.388885 -0.242305 0.643048 -0.413289 0.187417 0.455534 0.298482 -0.316635 -0.168143 0.187887 -0.122554 0.394585 0.472562 0.282761 -0.358711 0.213035 -0.659100 0.170207 -0.712625 0.015924 -0.136318 -0.308611 -0.074329 0.263462 -0.486639 0.188570 0.285299 0.393212 -0.493940 -0.284812 -0.002798 0.185343 -0.177166 0.246519 0.607759 0.220254 0.230819 -0.015219 -0.452308 0.149604 0.137035 0.462173 -0.152676 0.149894 -0.041379 -0.530542 0.301624 0.657829 0.184055 0.347352 0.256797 0.107396 -0.167341 0.032929 -0.198818 -0.135721 0.433801 -0.107217 0.375317 0.513393 -0.055032 0.965186 -0.352038 -0.025946 -0.304495 0.338730 0.115137 0.827610 0.793910 -0.465810 0.554116 0.238164 -0.028293 0.369787 
527 0.106864 -0.523469 -0.048073 0.177875 -0.155529 -0.043439 -0.077997 -1.173016 0.521235 0.111886 -0.473389 -0.501641 0.637303 -0.403273 0.128725 -0.243026 0.295960 0.181592 0.335269 -0.118797 0.012365 0.466972 0.146261 -0.083936 0.265869 0.119236 -0.582222 -0.192821 0.220527 0.277717 -0.103663 -0.113584 -0.508490 -0.334895 -0.467674 -0.200113 -0.280689 -0.513852 -0.339005 -0.048608 0.460839 -0.227713 -0.165083 -0.145179 0.222799 -0.072604 0.789498 0.040171 0.063536 0.637230 -0.005627 0.007721 0.244846 0.015236 -0.347392 0.015389 0.136854 0.301251 -0.199810 0.134182 -0.565908 0.077615 -0.024590 0.262848 0.271012 0.391141 -0.256733 0.724301 0.136270 0.238229 -0.044858 -0.045069 0.576968 -0.261439 -0.312521 -0.006580 -0.280855 -0.187163 -0.369614 -0.253408 0.019960 -0.295111 -1.211531 -0.321193 -0.380464 -0.425962 -0.258934 0.321019 0.161009 -0.057626 0.125038 0.119207 0.202445 -0.291068 0.501285 0.109408 0.133721 -0.135979 0.119004 -0.532536 0.506469 0.143631 -0.217852 0.167240 -0.445383 -0.062515 0.048726 -0.391657 0.031553 0.292709 0.176124 -0.263743 0.047645 0.587471 0.346427 -0.179433 0.682327 0.627424 -0.097887 0.371446 -0.033162 -0.188581 0.126458 0.296755 -0.086396 0.491518 -0.042294 0.079532 
1197 0.461660 -0.072379 -0.131382 -0.326528 0.076963 -0.035337 -0.223808 -0.715459 -0.099324 0.343271 0.634526 -0.294582 -0.374007 0.301081 -0.403347 -0.383263 -0.350583 0.662811 0.118294 0.215811 -0.392408 0.375346 -0.155470 -0.273046 -0.321843 0.186465 -0.139076 -0.025663 -0.136233 0.152593 -0.253558 -0.041841 0.011800 -0.728175 0.139189 -0.374566 0.165059 0.200626 -0.480412 -0.018239 0.362533 -0.490575 -0.377232 0.221968 -0.024057 -0.128907 0.026067 -0.330112 0.098950 0.127722 0.397796 -0.047013 0.214955 0.299480 -0.221556 0.330017 0.319911 -0.133755 0.398005 0.422613 0.164427 -0.084243 0.387220 -0.009117 0.144071 0.468731 -0.130077 -0.438265 0.253371 -0.437885 -0.455148 -0.088449 0.055330 0.024141 -0.427642 -0.708686 0.386303 0.514462 -0.369127 0.077821 -0.373230 0.247930 -0.250695 0.055189 0.008033 0.363934 0.113603 0.313918 0.703938 0.160971 0.245465 0.015566 0.466193 0.276446 0.800701 0.588375 -0.185099 -0.048030 0.079355 0.220187 0.304865 0.586827 -0.487373 0.024428 0.636702 0.151488 -0.020328 -0.075726 0.088736 0.152073 -0.323020 0.007664 -0.102927 0.171334 0.070751 0.929709 -0.423766 0.020203 -0.456497 0.114974 0.492326 -0.111747 0.112292 0.170753 -0.070654 -0.014539 -0.242397 -0.084265 
2396 -0.522366 0.021038 0.711004 -0.255435 -0.610307 0.125947 -0.131951 -0.229877 -0.189522 0.144145 0.401149 -0.405911 -0.083179 -0.234444 -0.452023 0.358068 -0.070723 0.009891 -0.170704 -0.050247 -0.223416 -0.022164 -0.134599 -0.436378 -0.255170 0.230640 -0.141924 -0.217916 0.127169 0.097420 -0.183485 0.196755 -0.003233 0.055424 -0.229221 -0.487441 -0.059281 0.045906 -0.029505 -0.051544 0.104953 -0.394292 -0.001765 0.299823 0.457573 0.114285 0.292102 0.204194 0.506130 0.598111 0.327482 -0.216399 -0.314463 0.320131 -0.122624 0.528455 0.187495 0.011439 -0.486165 -0.168028 0.253994 -0.431522 -0.167367 0.358803 0.074515 0.462339 0.161385 0.227972 0.204102 0.738774 -0.306387 0.315559 0.027592 -0.468277 -0.298143 0.434382 0.016090 -0.168418 -0.662361 0.247759 0.824665 0.444281 -1.255953 0.112881 -0.345929 -0.337847 -0.157771 0.355608 0.504630 0.040916 -0.080319 0.010796 -0.129759 -0.096180 0.322285 0.436833 -0.616733 -0.377758 -0.723530 -0.393649 0.045054 0.470349 -0.412687 0.392905 0.457095 0.150263 -0.138596 0.428737 -0.446183 0.161725 0.000245 -0.044774 0.289474 0.182974 0.408676 0.357530 -0.260332 0.331465 -0.008052 -0.091147 -0.137069 -0.154654 -0.152791 -0.458076 0.132590 0.272177 0.658935 -0.367608 
1617 0.304510 0.168757 -0.449464 0.203805 -0.199166 -0.141560 0.313756 -0.347946 -0.237504 -0.092938 0.021416 -0.283929 0.388202 -0.371866 -0.342365 -0.228290 0.007585 -0.414456 0.442238 -0.221103 -0.211752 -0.145674 0.197266 0.356529 0.112002 0.011700 -0.163139 -0.274414 -0.169353 0.038950 -0.443434 -0.441329 0.198172 0.460170 -0.112592 -0.559172 -0.624579 0.278980 -0.408943 -0.289824 0.105489 0.224370 0.279460 -0.110269 -0.003479 0.084987 0.527740 0.301301 -0.069762 -0.294777 0.117817 0.486128 -0.415492 -0.182171 0.323645 0.291535 0.354270 0.111997 0.297878 0.308098 0.254652 0.133338 0.228586 0.202064 0.525882 0.070252 0.083997 -0.689377 -0.110782 -0.005189 0.345398 -0.612580 0.276036 -0.076964 -0.059891 0.135401 0.024276 -0.467654 0.020737 0.398180 0.384323 -0.081853 -1.283226 -0.354088 -0.003570 0.049928 -0.347268 0.326598 0.292351 0.738828 -0.605960 -0.235497 -0.610766 0.254332 -0.099233 0.231661 0.077821 -0.219131 0.237368 0.299575 0.050648 0.274229 -0.252862 -0.070240 0.303881 0.219942 0.404881 -0.015944 -0.045982 -0.127706 -0.390032 -0.061119 0.127457 -0.171906 -0.133711 -0.188806 0.042814 -0.253742 0.374794 0.104511 0.137759 0.095859 -0.013569 -0.459657 -0.047679 -0.595192 0.083159 0.334120 
318 0.012154 -0.309626 0.267612 0.380045 -0.377741 0.219720 0.474094 -0.428820 -0.383649 0.351755 0.500517 0.268713 -0.429707 -0.360863 -0.136038 -0.081315 -0.549816 0.137109 0.436802 0.663176 -0.036000 0.066998 -0.462882 -0.268623 -0.266675 -0.106664 -0.261153 -0.416503 0.381689 -0.121027 -0.079720 0.001046 -0.569594 0.431383 0.071398 -0.273473 -0.117778 0.347237 -0.118897 0.062632 -0.035086 0.032482 0.297317 -0.054431 -0.351546 -0.345008 0.550843 0.097953 0.761030 -0.029367 -0.246526 0.294960 0.022379 -0.014718 -0.054636 0.051477 -0.419044 0.038569 0.209344 0.387471 -0.213910 -0.511639 -0.218400 -0.054045 -0.344779 0.034374 0.191070 0.470680 0.016721 0.290339 -0.252073 0.386253 -0.001076 -0.096081 -0.295438 0.221572 0.154815 -0.095954 -0.514020 0.255765 0.237489 0.082650 -0.951012 -0.371513 -0.480505 0.665660 -0.081087 0.316435 0.702795 -0.247119 0.163984 -0.007906 0.378052 -0.004743 0.229882 0.514033 0.381228 -0.235118 0.044943 -0.489345 0.548676 0.294669 -0.581228 0.482563 -0.060393 -0.333916 -0.585961 0.142021 0.660263 -0.266484 -0.261349 -0.013639 0.423935 0.192985 -0.275602 0.149505 -0.409765 -0.029620 -0.378663 0.210746 0.044214 0.215670 0.289602 0.449135 0.381264 -0.106214 -0.476924 -0.031222 
858 -0.046623 0.395180 -0.309272 -0.507038 -0.277477 0.131125 0.020433 -0.859447 -0.031788 0.066425 0.211855 -0.558829 0.030861 -0.691256 -0.428456 0.540727 0.402549 -0.145002 -0.327990 0.548669 -0.124475 0.394510 -0.280200 0.281035 -0.368391 -0.743581 -0.149631 0.175493 0.531410 0.094474 0.089603 0.029031 -0.194975 0.059031 -0.064824 -0.352770 -0.289911 0.496184 0.293992 -0.357317 0.039481 -0.170557 -0.144982 0.192778 0.206088 0.148239 0.534536 -0.315334 -0.100814 -0.361556 0.434079 0.295357 -0.176127 0.423930 0.248484 0.129133 0.003045 0.050681 0.116621 0.322130 -0.056214 -0.040145 0.007805 0.295902 -0.368615 0.250558 -0.340827 -0.185793 0.617985 -0.239233 -0.164274 -0.269002 0.303483 -0.192797 -0.039497 -0.076357 0.118436 0.267061 -0.073415 -0.047364 0.275662 0.517358 -0.883139 -0.051279 0.439013 -0.438610 0.502271 -0.216893 0.567908 0.102043 -0.205807 0.152325 -0.205034 -0.109111 0.624103 0.503219 -0.004926 -0.268614 -0.165035 0.173699 -0.121195 0.422878 -0.048653 -0.213348 0.276708 -0.179408 -0.155283 -0.112421 -0.178039 0.100668 0.234242 0.310190 0.330480 0.420134 0.405092 0.254782 0.619030 -0.070821 -0.268628 -0.029547 -0.310671 0.230840 -0.175195 -0.083556 -0.080095 0.283505 -0.416510 -0.555860 
1265 0.078822 -0.302632 -0.047897 -0.336209 -0.342653 0.257654 -0.055661 -0.458285 -0.089062 0.210921 0.221588 -0.633302 0.037908 -0.265496 0.513703 -0.638691 0.099580 -0.676973 1.014182 -0.307938 -0.109388 0.221129 -0.316332 0.584086 0.011812 -0.069996 -0.322667 -0.050442 -0.188515 0.086966 -0.650442 0.020789 0.037841 -0.379736 0.220189 0.009808 -0.333258 -0.005988 -0.434580 0.165262 -0.114447 -0.320300 -0.305038 0.004489 -0.028422 0.254684 0.062550 0.199048 0.557266 0.093013 -0.463951 0.197359 -0.386634 -0.169010 0.483272 -0.659668 0.024163 -0.118792 -0.060159 0.277576 0.171886 -0.385367 0.441528 0.205716 0.652327 0.292995 0.185417 0.061132 -0.458581 -0.523282 0.469964 0.154829 0.307439 -0.200256 -0.648651 -0.148041 0.293801 -0.053443 0.171281 -0.369423 -0.052253 -0.048345 -0.960854 -0.125635 0.331866 0.536732 0.048219 -0.333970 0.922897 0.129673 0.444255 0.262861 -0.148603 0.112782 -0.940440 -0.643537 0.168462 0.166789 -0.010786 0.067136 0.059174 0.926005 -0.528583 -0.069951 0.752920 -0.548370 0.168224 0.300900 -0.003846 0.388590 0.091962 0.199815 0.291638 -0.145052 0.472563 -0.001555 0.085323 0.589084 -0.188230 0.534161 0.361756 0.216844 0.369453 -0.330284 -0.043138 -0.647998 0.071173 0.313191 
1097 0.075266 -0.159559 0.310707 -0.143893 0.121854 0.090383 -0.595177 -0.385723 0.781078 0.203719 -0.029697 -0.226194 0.143488 0.048423 -0.029264 0.950498 0.161909 0.147599 0.872039 -0.448587 0.467393 -0.064150 0.009754 -0.881727 -0.735214 -0.093576 0.016400 -0.575274 -0.044234 -0.223002 -0.355733 -0.671978 -0.668914 0.118822 0.099028 0.391735 -0.635250 -0.099577 -0.122449 -0.341389 0.074435 0.067471 0.043699 0.095444 0.930169 0.103191 0.879290 0.104180 0.407474 0.228762 0.046206 0.114024 0.565274 0.387753 -0.373790 -0.070921 0.818390 -0.153076 0.309947 0.625035 -0.183717 -0.183066 0.330444 0.168990 0.043212 0.491279 -0.329037 0.739968 0.654669 0.195221 -0.621977 -0.441837 0.081253 0.027823 -0.248571 0.393089 -0.089601 -0.092953 -0.477717 -0.089138 0.267075 -0.058895 -1.599740 0.332345 -0.399967 -0.393345 -0.160254 -0.593388 0.876598 -0.489945 0.121995 -0.097285 -0.588877 0.388646 0.159829 0.371018 0.413400 0.182599 0.172596 -0.413935 0.024063 0.094200 -1.134561 -0.024540 0.128084 0.844774 -0.153540 0.214234 -0.234960 0.009662 0.217574 0.114679 -0.086756 0.273909 -0.045614 -0.293703 0.368060 0.295445 0.347974 0.402057 -0.085717 -0.372575 0.414307 0.027856 0.100676 0.047887 0.316440 0.042801 
2997 0.135876 0.203821 -0.576245 0.113591 0.000869 0.037146 -0.581856 -0.290640 0.157811 0.620934 -0.367012 -0.059551 0.014793 -0.210866 0.135549 -0.086831 0.465692 -0.164961 0.631612 -0.011410 -0.090745 -0.114256 -0.003212 0.231990 0.392600 0.132686 0.172907 0.252804 0.322193 0.379236 -0.383341 -0.126200 0.379068 0.070221 0.242990 0.082457 0.062914 -0.219270 -0.425517 -0.798344 -0.260106 0.215799 0.099603 -0.573364 0.201261 -0.350039 0.497064 0.209400 0.097501 -0.282683 -0.432946 -0.091333 -0.369202 -0.373471 0.231041 -0.651982 -0.012448 0.348377 -0.382008 0.137888 0.281755 -0.163388 0.128106 -0.230566 0.881546 -0.040361 0.381962 -0.243096 -0.100955 -0.461539 0.282144 0.040583 0.683478 -0.294893 -0.051909 -0.354924 0.378695 0.480051 -0.066364 -0.247287 0.212106 -0.070286 -1.334113 -0.412566 -0.171300 -0.021117 -0.110789 -0.361591 0.605468 0.507341 0.430153 0.174401 0.364839 0.040634 -0.377545 0.288049 0.087299 -0.118646 -0.443557 -0.382859 0.210075 0.766571 -0.234744 -0.614808 0.469434 -0.389348 0.048262 0.287807 0.214919 0.309559 -0.079416 0.020810 0.273087 -0.145833 -0.063343 0.299595 -0.019108 0.159954 -0.257115 -0.131756 0.409972 0.381121 0.385726 -0.359132 0.399603 -0.405037 0.646774 -0.246426 
2716 -0.593857 -0.696828 -0.056668 -0.059204 -0.260559 -0.226437 -0.016079 -0.345626 -0.331215 0.292862 0.220489 -0.371665 0.089288 -0.245780 -0.337403 0.676376 -0.397601 0.258304 -0.110424 0.678639 -0.911077 0.188312 0.473208 -0.116013 -0.616826 0.072111 -0.159439 -0.020272 0.632029 -0.263854 -0.358844 0.091047 -0.279865 -0.093447 0.702765 0.039316 0.188750 -0.291595 -0.016614 0.209142 0.000124 -0.387943 -0.155331 0.113692 0.175937 0.005305 0.716510 -0.165771 0.319379 0.633084 -0.061401 -0.108576 0.185277 -0.402109 0.342218 0.496835 -0.049521 0.146143 -0.363049 0.191959 -0.087277 -0.156117 0.169925 0.282480 -0.260249 0.129831 0.661034 0.605024 0.167968 0.013537 -0.164147 0.236302 -0.229645 -0.293112 -0.154902 -0.383420 -0.014994 0.004908 -0.416292 0.172264 0.382936 0.586232 -0.839402 0.108348 -0.391914 -0.204885 -0.271000 0.146640 0.497581 0.261999 -0.291827 0.113503 0.301038 0.408762 0.077908 0.368891 0.228589 -0.149106 -0.021294 -0.706803 0.748138 0.254363 -0.487032 -0.113601 -0.051711 0.321945 0.307495 0.666943 0.024885 0.039518 0.023374 -0.143733 0.309848 0.663998 -0.035189 0.324422 0.603386 0.404856 -0.065148 0.391980 -0.723282 0.068854 -0.292176 0.158644 0.288180 0.155056 0.078650 0.027178 
296 1.328274 0.139924 -0.500583 -0.114528 0.059220 -0.154749 0.300218 -0.386226 0.197534 0.120139 0.093405 -0.374702 -0.410406 0.450908 -0.308186 -0.388861 0.176260 0.083734 0.618638 -0.221791 -0.444198 -0.123059 -0.516695 0.126254 -0.099833 -0.546569 -0.043518 -0.100809 -0.039111 0.049799 -0.259418 0.402929 -0.267016 -0.501003 -0.519380 -0.524155 0.219523 0.544716 -0.069668 0.066000 -0.436033 0.101714 0.187269 -0.267044 -0.371698 0.646389 0.163896 0.071418 -0.117251 -0.169665 0.403744 0.039854 0.163940 -0.522065 -0.440091 0.149880 0.644394 0.120718 0.491951 0.002046 -0.169441 -0.231610 0.429256 -0.348370 0.002117 0.009189 0.489909 -0.134124 0.189429 -0.310206 -0.416454 0.393137 -0.074684 -0.092175 -0.492523 -0.534365 0.188933 -0.005015 -0.356801 0.001485 -0.376985 -0.003220 -0.860330 -0.285755 0.199883 -0.490643 0.225935 0.380402 0.470344 -0.297483 -0.431683 -0.215062 0.427618 -0.262180 0.519808 0.283937 -0.108404 -0.310505 -0.208710 0.083025 0.183622 0.350074 -0.147127 0.088007 0.212899 0.345835 0.326434 0.374476 -0.120118 -0.483605 -0.825467 0.345757 -0.082902 -0.038845 0.556449 -0.396484 -0.096281 -0.093994 0.299301 -0.365773 -0.128043 -0.040443 0.411151 -0.299479 -0.476233 0.067487 0.088883 0.323376 
356 -0.022690 -0.126130 -0.045603 0.059454 -0.172627 0.152150 -0.531561 -0.736995 -0.121797 0.147081 -0.230699 0.032426 -0.385237 -0.107215 0.848782 0.117782 -0.470793 -0.422181 -0.121032 0.157109 -0.180867 -0.113635 -0.227241 -0.114214 -0.507535 -0.239853 -0.592553 -0.454859 0.240439 0.192069 0.117183 -0.031471 -0.507085 -0.335848 -0.335738 -0.259462 -0.350802 -0.121584 0.115259 0.078112 -0.128460 0.106664 -0.237323 -0.584148 0.010878 -0.279388 0.579638 -0.001677 0.367625 -0.136493 -0.100856 -0.109778 -0.002671 -0.149275 -0.153271 0.020246 0.237008 0.136428 -0.290084 0.057129 -0.376378 -0.615274 -0.164913 -0.693452 -0.367223 0.113160 0.029792 0.362842 0.093538 0.076378 0.347934 -0.034033 0.020613 -0.425178 -0.122436 0.093241 0.550318 -0.264618 -0.182188 -0.236358 -0.322684 0.138493 -0.955622 -0.441361 -0.212021 0.024002 -0.673570 0.169678 0.836890 0.059624 0.275706 -0.086179 -0.207181 -0.082335 0.127210 0.193746 -0.037759 0.102210 -0.141144 -0.246267 0.530626 0.360997 -0.209832 0.480721 -0.125188 0.411716 -0.220939 -0.249927 0.646887 -0.218689 0.360156 0.632928 0.279070 0.091368 0.492663 0.745224 0.132830 -0.005910 0.183532 -0.084650 -0.231503 0.092460 -0.087570 -0.413522 0.328767 -0.502111 0.116472 -0.451478 
1240 -0.194245 0.337224 0.229479 0.263918 0.055958 -0.025428 -0.179719 -1.084801 0.418707 0.102502 -0.186527 -0.075966 0.220217 -0.142697 -0.211417 0.606702 0.595431 0.408060 1.365693 -0.252834 0.024665 -0.309052 -0.789331 -0.357416 -0.631584 0.297793 -0.390553 -0.372795 0.293300 -0.127288 -0.773346 -0.660631 -0.076068 0.094893 0.083296 -0.093678 -0.755697 -0.716388 0.673135 -0.213628 -0.094421 0.272411 -0.092133 0.202224 -0.224332 -0.131853 0.563026 -0.125910 -0.087918 0.356529 -0.585965 0.083300 -0.148532 0.012533 -0.056779 -0.153071 0.211569 -0.259106 -0.484662 0.336811 -0.037769 -0.290764 0.509335 0.047751 0.738554 0.368829 -1.119199 -0.269049 -0.250290 -0.266469 0.037274 -0.263675 0.140958 -0.000113 0.339828 0.268023 0.278735 0.064479 0.335619 -0.054960 -0.337452 -0.353240 -0.797013 0.200182 0.033470 -0.268178 -0.373262 -0.351476 0.876498 0.405764 0.193577 -0.498027 -0.386721 -0.461234 0.023838 0.314332 0.547833 0.674166 0.105616 -0.371446 0.456874 0.494867 -0.585815 -0.099678 0.323123 -0.066699 -0.090277 0.434915 -0.440834 -0.085052 0.164245 0.101010 0.117580 0.243862 0.039854 0.061763 0.136751 -0.024745 0.032371 0.781891 0.125625 0.137357 0.593002 -0.344704 -0.212582 -0.418639 -0.184739 -0.070361 
1 0.194701 -0.111046 -0.087181 -0.023676 0.007360 -0.080717 -0.052846 -0.133988 0.378133 0.321936 0.232977 -0.423327 -0.322217 0.087001 0.164989 -0.440576 -0.430144 -0.021689 -0.012764 0.156628 -0.330113 0.107170 -0.115273 0.032856 0.199383 0.144810 -0.215144 -0.272322 -0.461188 0.750410 -0.611193 -0.227184 -0.220341 0.366017 -0.234420 -0.205359 0.460980 -0.576095 -0.210397 0.198250 0.203952 0.262558 -0.400494 -0.547697 -0.565070 0.330544 0.012520 0.372262 0.488107 -0.294496 -0.204365 -0.206218 0.149358 -0.761479 0.361291 -0.059840 -0.302564 0.324593 0.180263 -0.253495 0.493899 -0.187831 0.097698 0.785851 0.076541 0.184767 0.499342 -0.059763 0.026095 -0.519745 0.354610 -0.064418 -0.613586 -0.002125 -1.081616 -0.284882 -0.143649 0.061437 0.166806 0.000664 -0.348167 -0.008956 -1.299908 0.281750 -0.024597 -0.523098 -0.278009 0.010050 0.887109 0.868426 -0.028173 0.089477 0.256511 -0.144206 -0.370145 -0.137441 0.715863 0.139915 -0.283956 0.031516 -0.097248 0.873652 -0.390242 -0.441373 0.857635 -0.280313 -0.204528 -0.037507 -0.163660 0.218382 -0.461258 0.663494 0.106986 -0.114992 0.175618 0.338014 0.223686 0.256304 -0.537914 -0.038544 0.134922 0.520239 0.255413 -0.416250 -0.197881 -0.910097 0.130629 0.304368 
457 0.419621 -0.044514 -0.372287 -0.028616 -0.337713 -0.200084 0.017943 -0.672215 0.360418 0.074911 -0.088430 -0.847413 0.181221 0.035820 -1.075268 -0.099953 0.321103 0.410313 0.254690 -0.557751 0.238268 -0.163327 -0.441525 -0.247218 -0.249715 -0.429806 -0.048230 -0.300775 -0.087585 -0.095317 0.108024 -0.445221 -0.296493 -0.231820 0.039588 -0.734522 -0.157301 0.754683 -0.400810 0.121005 -0.450229 -0.182184 -0.260908 0.030621 -0.180847 0.521991 -0.043165 -0.220740 -0.202730 0.183480 -0.254394 -0.232711 -0.604926 -0.179154 0.143070 -0.339743 0.279857 -0.009203 0.578422 0.284048 0.738527 -0.393713 0.310361 -0.266491 -0.145538 -0.184454 -0.075309 0.447903 -0.274802 0.164878 -0.155505 0.155139 -0.567063 -0.064630 -0.717103 -0.437736 0.137051 0.167225 -0.430847 0.142558 0.087732 0.032041 -0.913821 -0.118358 0.436240 -0.496419 0.437861 -0.104626 0.122922 0.326937 -0.087292 -0.258118 0.184096 0.586642 0.328604 0.177698 0.188950 -0.181368 0.665007 0.533102 0.547398 0.468389 0.096979 0.009074 -0.025237 -0.067004 -0.095090 -0.126445 0.560257 0.418529 -0.059460 -0.793146 -0.229479 -0.238795 0.801135 0.094276 0.243603 0.014299 0.125655 -0.117342 -0.247359 -0.093886 0.084599 -0.391701 -0.326278 0.093204 -0.047967 -0.273460 
1214 -0.185825 0.158384 -0.330469 -0.087558 -0.001087 0.537885 -0.528459 -0.812343 0.361848 -0.346418 -0.749455 0.244844 0.359288 0.049088 0.058013 0.400277 -0.065177 0.497980 0.958537 0.233660 0.276356 -0.056529 -0.364957 -0.166509 -0.165727 0.003088 -0.638205 -0.223358 -0.151866 -0.019970 0.232192 -0.017750 0.174735 0.347533 0.437574 -0.445506 -0.387490 -0.211655 -0.008423 0.307294 0.247375 0.074725 0.462092 0.386044 0.098519 -0.664870 0.572111 0.099001 0.391413 0.162259 0.249809 0.500600 -0.254954 0.021633 0.124339 0.131001 0.439433 -0.117446 0.101477 0.250472 0.308146 -0.664809 0.123124 -0.445990 0.154865 0.509037 -0.239507 0.735569 0.343343 0.098172 0.232295 0.151261 0.937441 0.391717 -0.415832 -0.822578 0.003261 -0.140826 -0.087556 -0.467218 -0.120380 0.310557 -1.086016 0.213987 0.292393 0.197538 -0.376245 0.062380 0.767030 0.402625 0.292899 -0.561055 -0.119139 -0.535368 0.085220 -0.098388 0.332037 0.536358 -0.056267 -0.435892 0.260917 0.712833 0.054435 -0.169184 0.030365 0.118758 0.135981 -0.152414 -0.021838 0.064922 0.307717 0.074539 0.378441 0.586317 0.375657 0.195496 0.090442 0.543927 0.035111 0.895471 0.224022 0.018270 0.329479 0.026685 0.121228 0.076739 -0.394012 0.101695 
3578 0.087650 -0.239440 0.157944 -0.017338 -0.196159 -0.194771 0.282584 -0.770277 -0.299810 -0.525090 -0.421858 0.706992 0.552187 -0.266401 0.097677 0.026337 0.019446 -0.166104 0.191916 -0.400906 -0.231818 0.009685 0.160266 0.096016 -0.139267 -0.365141 -0.424850 0.058635 0.131209 0.156342 0.064099 -0.252732 -0.034306 -0.204788 -0.049993 0.180547 -0.170262 -0.071409 -0.128435 -0.209805 -0.248314 -0.237113 -0.527172 -0.711532 0.169468 -0.266396 0.668810 -0.285181 0.243484 -0.158389 -0.438640 0.468999 -0.171128 -0.284297 -0.107311 0.687369 0.275297 -0.008541 0.081015 -0.191505 -0.000865 -0.776970 0.326260 -0.462055 -0.137641 0.511430 0.301964 0.181637 0.140465 -0.424590 -0.343042 0.468633 0.387246 0.052553 -0.112594 0.017010 0.352396 -0.129792 0.324004 -0.313896 0.222396 -0.081751 -0.794165 -0.057310 -0.310382 -0.165024 -0.247671 0.269528 0.695312 -0.026655 0.534667 0.158521 0.262353 -0.573852 0.326049 0.016284 0.417233 -0.156406 0.016136 -0.546491 0.611545 0.472982 -0.530966 0.262721 0.302105 0.252424 -0.279245 -0.481747 0.237503 -0.801824 0.223062 0.087068 0.425903 0.454908 0.750815 0.236616 -0.112413 0.210022 0.226655 0.352131 -0.142932 0.277269 0.431028 0.094580 0.394814 -0.197573 0.347064 -0.317033 
2916 0.148883 -0.354334 0.027750 0.110158 -0.068456 -0.124726 -0.132069 -0.742684 -0.346559 0.229427 -0.397325 0.182506 -0.455900 0.318183 0.855498 0.169946 -0.145444 -0.366035 0.340706 -0.386118 0.183082 0.292671 0.345637 0.208323 -0.071285 -0.053450 -0.492940 0.090056 0.373908 0.367163 -0.143933 -0.033172 0.039878 0.048608 0.250034 -0.448699 -0.707077 -0.577847 -0.060320 0.532800 -0.114605 0.217225 -0.793948 -0.137921 0.168450 0.237498 0.497031 -0.112938 0.477665 0.216402 -0.074375 0.163841 -0.623543 -0.206093 -0.343531 0.361302 0.516182 -0.280994 0.333410 -0.157109 -0.061153 -0.464401 0.171077 -0.725544 -0.175556 -0.187547 0.162364 0.363866 -0.103165 0.090781 -0.076401 0.521922 0.312993 -0.484546 -0.092239 -0.064131 0.169030 0.095910 0.105565 0.266571 -0.453842 -0.285683 -1.156173 0.000194 -0.118303 0.608767 -0.594828 0.373254 0.680465 -0.131110 0.300004 0.234003 0.004400 0.097839 0.450852 0.148746 0.376064 0.296277 0.057135 -0.237623 0.549983 0.245983 -0.745366 0.164921 0.229268 0.054964 -0.407436 -0.107682 0.299500 -0.823181 0.132860 0.258611 0.316471 0.863959 0.527885 -0.169007 0.235955 0.800272 -0.205069 0.601122 0.104113 0.159717 -0.120070 -0.420063 0.207141 0.142559 -0.017300 -0.237990 
2628 -0.371119 -0.026857 0.326730 0.177144 0.056162 -0.184061 -0.179807 -0.446711 0.443329 -0.517645 0.000574 -0.400593 -0.238022 -0.070168 -0.444759 0.068751 0.039695 0.044792 0.105752 0.277209 -0.021147 -0.666703 0.144545 -0.291909 0.178390 -0.070781 0.274781 -0.179310 0.046479 0.063676 -0.272655 0.369429 0.160851 -0.054533 -0.194070 -0.099503 -0.326204 0.173750 -0.215576 -0.297533 -0.262034 0.045439 0.235093 0.415741 0.329195 0.030487 -0.055919 -0.042148 -0.370518 0.402578 -0.067527 0.578653 -0.248414 -0.318764 -0.009053 -0.122641 0.196207 0.168212 0.345544 0.371199 0.453906 -0.256229 0.148251 0.077400 0.856159 -0.145692 -0.677993 0.052245 -0.763506 -0.433216 0.189867 0.070960 -0.225437 -0.288374 -0.229975 -0.485791 0.236334 0.382410 -0.106969 0.437213 -0.187491 0.317625 -1.545324 0.296434 0.063683 -0.045974 -0.245515 0.114768 0.135337 0.292467 0.176299 -0.385743 0.229435 0.630925 0.182209 -0.532503 0.134406 -0.157311 0.023802 0.101074 0.228282 -0.254629 -0.385792 0.391348 0.191419 0.245577 0.013787 0.051730 -0.217029 -0.524661 -0.058705 0.004188 -0.598045 0.213708 0.101433 0.190322 0.235192 0.134672 0.466348 -0.100408 -0.076380 0.038985 0.211983 -0.383145 0.109293 -0.330469 -0.096109 -0.140652 
50 0.094398 -0.279246 -0.217817 0.165136 -0.087493 0.139456 -0.198458 -0.994234 -0.294564 0.159155 -0.372749 0.144463 0.142053 -0.309273 0.469068 -0.356392 0.006936 0.052952 0.344751 -0.092867 -0.195943 -0.038477 0.139545 0.104393 -0.249865 -0.499899 -0.257153 -0.144472 -0.046071 0.936406 -0.594419 -0.167991 -0.047973 0.021934 -0.288068 0.040784 0.069953 -0.374127 0.025005 -0.216748 0.278638 -0.131393 -0.253311 -0.218545 -0.318037 -0.139620 0.606980 -0.016918 0.072039 0.024398 -0.338951 0.186699 0.298900 -0.279274 0.070809 0.215046 0.585368 0.028780 0.151425 0.118325 -0.027406 -0.206915 0.880122 -0.549193 -0.074222 -0.018639 0.182838 0.892740 -0.584984 0.122607 0.028134 -0.197562 0.166255 0.117696 -0.330817 -0.225804 -0.190650 -0.220737 -0.026608 -0.200994 -0.074773 0.177608 -1.028093 0.132709 0.065518 0.110569 -0.220952 0.431378 0.499972 -0.287375 0.276774 0.841824 -0.300567 -0.609932 0.435368 0.918100 0.517646 -0.081620 -0.095655 -0.792257 0.493465 0.562778 -0.088664 0.358724 0.195553 0.186852 0.217621 -0.431193 0.202659 -0.137209 0.516899 -0.089481 0.380235 0.765944 0.209672 -0.474207 -0.012913 -0.312701 0.388172 0.095763 0.334309 0.032430 0.079229 -0.027932 -0.273937 -0.086991 0.270787 -0.365977 
1259 0.053414 0.283455 -0.018166 -0.233998 0.006696 -0.015453 -0.137558 -0.451359 0.105211 0.660143 -0.148712 0.029354 0.107798 -0.088974 0.001327 -0.115888 0.432322 -0.030504 0.762556 0.010459 -0.062384 0.081622 -0.253271 0.317911 -0.226652 0.424817 0.206890 -0.085528 -0.091088 0.731068 -0.997175 0.093586 -0.436006 0.284387 0.406712 -0.343272 -0.206307 -0.063475 -0.166171 -0.253215 -0.204897 0.211856 0.150294 -0.317544 0.376914 -0.177698 0.301737 0.674631 0.629738 0.020569 -0.272900 0.412749 -0.161564 -0.448862 0.351296 -0.116572 0.146074 0.484521 -0.100897 0.453585 0.235798 -0.031562 0.015483 -0.186771 -0.058586 0.048180 0.066064 0.477346 -0.306953 -0.749625 0.578748 0.014723 -0.026384 0.057910 -0.885900 -0.713085 0.176728 -0.225943 0.431888 -0.318816 -0.548388 -0.301987 -1.027416 -0.585310 0.560943 0.056529 0.062947 0.561997 0.257004 0.397055 0.135709 0.085703 0.145827 0.148089 -0.358243 -0.112778 0.028721 0.115628 -0.658132 0.007917 0.502025 0.550187 -0.589582 -0.625547 0.138671 -0.438805 -0.098481 0.393028 -0.315553 -0.294905 0.146473 0.127409 -0.090893 0.143122 0.039451 0.196012 -0.205799 0.414996 -0.115219 -0.335742 0.468345 0.756017 0.532430 -0.924457 0.156329 -1.170023 0.174522 -0.142921 
541 -0.403223 -0.303778 -0.389401 -0.019372 -0.258237 -0.765054 -0.351444 -0.740392 0.709740 0.004780 -0.428285 -0.337632 0.288107 0.535920 -0.511602 0.037459 -0.375909 0.283747 0.264373 0.023221 0.018322 0.611098 0.229210 -0.454331 -0.473816 0.275974 -0.488797 0.094775 0.448777 -0.385753 0.305038 0.089481 0.053836 0.242684 -0.049910 0.177094 -0.507174 -0.598710 0.277419 0.121788 0.362400 0.285436 -0.254288 0.085112 0.184673 0.073275 0.833117 0.087752 0.943294 -0.262830 0.371112 0.580427 -0.008583 0.167403 -0.193684 0.087355 0.538917 0.039861 -0.358090 0.416051 0.045170 -0.801905 0.034260 0.037528 0.075857 0.872184 -0.493158 0.825129 0.444811 0.423744 -0.025231 -0.299148 0.259303 0.273956 -0.034914 -0.488096 0.131270 -0.094497 -0.433735 -0.232828 0.239628 -0.026811 -1.548480 -0.203124 0.321051 0.059128 -0.118303 -0.532577 0.307796 0.136814 -0.309222 0.075931 -0.172127 0.023739 -0.361095 0.574206 0.489252 0.033179 -0.016940 -0.145057 0.455179 0.154695 -0.444500 -0.025687 -0.355572 0.334971 -0.143649 -0.374982 0.050441 -0.053699 0.188680 -0.548738 0.550817 0.201251 0.014097 -0.247177 0.361029 -0.093757 0.145171 0.227969 0.144163 -0.366583 0.611779 0.170135 -0.079479 -0.069647 -0.010045 0.360735 
1200 0.250922 0.249220 -0.451000 -0.169718 0.001620 0.000940 -0.769547 -1.063818 0.564787 -0.015806 -0.213278 0.360190 0.226659 -0.008969 0.249660 0.131554 0.164247 -0.471517 0.953723 0.233118 -0.234850 -0.050652 0.225414 0.540520 -0.575089 -0.503292 -0.578308 -0.091540 0.211050 0.604158 -0.120605 -0.118984 -0.183900 0.515902 -0.268446 -0.076881 -0.333653 -0.282846 0.384358 0.615444 0.267350 -0.178170 -0.216081 -0.168346 -0.007666 0.136753 0.496933 0.170873 -0.011523 0.244685 0.002017 0.059125 0.297304 -0.082179 -0.357633 0.253664 0.731858 -0.170128 -0.107360 0.093450 0.331850 -0.779880 -0.210106 -0.388514 0.371613 0.170305 0.207815 0.323621 -0.004672 0.197042 0.325808 0.561714 0.389407 -0.125658 -0.675101 -0.482009 -0.103221 -0.108967 -0.276678 -0.034957 -0.163401 0.142048 -1.018543 -0.005877 -0.452598 0.191506 -0.323189 0.438490 0.311265 0.425404 0.463094 0.164659 -0.179865 -0.280264 0.495603 0.518015 0.185859 0.059503 0.322802 -0.439504 -0.096593 -0.112621 -0.276816 -0.152572 0.112830 0.149222 -0.182144 -0.541020 0.284569 0.071916 -0.057665 -0.421318 0.247607 0.341669 0.545271 0.270297 0.038215 0.710079 -0.181578 0.200867 0.143472 0.052912 0.479622 0.869712 -0.012422 -0.075011 -0.188442 -0.194415 
1193 0.158572 -0.211081 -0.060068 -0.359845 -0.018241 -0.632829 0.213685 -0.366170 0.377386 0.472354 0.114993 0.260858 -0.066318 -0.019319 -0.352046 -0.512847 -0.079136 0.569777 0.342449 0.229450 -0.470694 0.202651 -0.042095 -0.192385 -0.116533 -0.065032 0.371731 -0.361509 -0.635481 0.371731 -0.295253 -0.523641 -0.280268 -0.377134 0.135660 -0.646077 0.095929 0.212185 -0.431917 -0.040354 0.021437 -0.225631 -0.290588 0.365149 -0.246868 0.072703 0.153667 -0.063766 0.094563 -0.163974 0.534976 0.139068 -0.026603 -0.179682 -0.026554 -0.083355 0.334092 0.416193 -0.159473 0.342234 -0.311813 -0.024293 -0.046477 0.109119 0.250561 0.291330 0.381117 -0.414237 0.243270 -0.442269 -0.831428 -0.125596 0.120214 -0.042405 -0.233180 -0.195923 0.413660 0.220577 0.224120 0.197648 0.017907 0.596206 -0.521415 -0.238646 0.095754 0.090185 0.130196 0.561527 0.611799 -0.275408 0.055796 0.140767 0.074377 0.294724 0.699777 0.530332 0.012748 -0.121932 0.001066 0.426055 0.291557 0.580933 -0.478034 0.321983 0.620032 0.431768 -0.038102 -0.245441 -0.305148 0.067927 0.201694 -0.061457 0.024029 -0.427484 0.322614 0.737855 0.193564 -0.143638 -0.335143 -0.248028 -0.147734 0.384937 -0.166695 0.327597 0.213337 0.190385 -0.371302 0.152167 
919 0.608780 0.123716 0.261159 1.126658 0.343481 0.595609 0.576132 -0.980627 0.419820 -0.220110 0.359519 -0.354215 -0.180354 -0.409509 -0.157754 -0.400746 -0.296930 -0.456552 0.665335 -0.240339 -0.561855 -0.114068 -0.065942 -0.200889 -0.212754 0.008603 -0.583614 -0.271982 0.209131 -0.048482 -0.179465 0.128807 0.127318 0.084897 -0.093360 -0.476625 -0.243973 0.122513 -0.165460 -0.235794 -0.096859 0.255705 -0.202847 -0.383282 0.031022 0.413592 -0.291936 0.123310 0.069129 -0.100856 -0.489388 0.468532 -0.517716 0.089404 0.388135 0.584580 -0.019785 0.717090 -0.278027 -0.290894 0.130850 0.582331 -0.161862 0.630731 0.038675 0.204561 0.561775 0.263961 -0.252385 -0.196757 -0.186163 0.119483 -0.342859 0.177200 0.101173 -0.365274 -0.055202 0.346762 0.498770 -0.032623 -0.256331 -0.049988 -1.053985 0.073073 0.166558 -0.375595 -0.203925 -0.178164 0.521750 0.179584 0.065113 -0.071124 0.046855 0.403106 -0.449927 0.346278 -0.101760 -0.276770 0.029814 0.178956 -0.340267 0.937930 -0.408264 -0.156270 0.162336 -0.056534 -0.167929 -0.184845 -0.025324 0.069318 -0.105372 0.822028 -0.405771 -0.378159 0.008875 0.010379 -0.027112 -0.409640 0.113855 0.266828 -0.073831 0.848573 0.242678 -0.049438 -0.492066 -0.456831 -0.738391 0.174416 
1221 -0.125998 0.232765 0.031675 0.280229 -0.245702 0.344360 -0.340207 -0.874504 0.488683 0.328440 -0.462740 -0.667405 0.674789 0.345415 -0.045130 0.266592 0.080156 0.578890 0.732814 -0.107953 0.217857 -0.340975 -0.290473 -0.163073 -0.085192 -0.247804 -0.349916 0.321790 0.399426 -0.213696 -0.045835 -0.253149 -0.294371 0.148095 0.398346 0.152784 -0.439561 -0.382931 0.276992 0.261847 0.192189 0.402332 -0.074082 -0.083096 -0.295809 -0.553240 0.365953 0.308008 0.075251 0.299868 0.346885 0.228549 0.053752 -0.349379 -0.523037 0.064394 0.625080 -0.322778 -0.258241 0.038215 0.624953 0.193993 0.312261 -0.221474 0.072373 0.363438 -0.040692 -0.087366 0.414950 -0.003685 0.079956 0.003709 0.613184 0.546628 -0.163666 -0.075086 0.103418 -0.041589 0.116561 -0.124197 -0.163658 0.180360 -1.265447 -0.046438 -0.116746 0.390102 -0.049162 -0.011202 0.821887 -0.193540 0.213771 0.364195 -0.152495 -0.179977 -0.140265 -0.010937 0.464569 0.541549 -0.285640 -0.680396 0.354985 0.209817 0.064102 -0.026668 0.184268 0.281711 -0.045119 -0.033128 0.002151 0.419807 0.434668 0.014683 0.553743 0.386263 0.444206 0.534510 0.013433 0.035105 0.184148 0.197671 -0.318226 0.521237 0.750109 -0.207234 -0.096789 -0.393987 0.049816 -0.040915 
912 0.647831 -0.019332 0.149215 0.367565 0.059425 0.474726 0.305718 -1.142969 0.151521 0.045476 0.589538 -0.737664 -0.218283 0.107776 -0.033503 -0.382199 -0.023463 -0.580051 0.342749 -0.648590 -0.202594 0.268236 0.276554 -0.398398 0.259893 0.119419 0.095751 -0.076501 -0.247972 0.692171 -0.291211 0.024364 0.083813 0.555246 -0.130674 -0.902855 0.352750 -0.011084 -0.188474 -0.414972 0.010857 0.704765 -0.246804 -0.124231 0.331513 0.230022 -0.118289 0.193697 0.218207 0.166202 -0.302649 0.685355 0.121948 -0.210197 0.421333 -0.082946 -0.211002 0.433555 0.064003 0.166935 0.052470 0.286437 0.050094 0.587346 0.038800 0.188302 0.406875 0.290871 0.035221 -0.286090 0.104497 -0.220582 -0.193656 -0.067064 -0.018725 -0.893105 -0.357740 0.566747 -0.376893 -0.037859 -0.223897 -0.107353 -1.052204 0.050183 0.317269 0.441612 -0.430890 0.176294 0.253067 0.556015 0.040716 -0.095124 -0.269581 0.141977 -0.196174 0.299232 0.030212 0.064170 -0.112786 0.177851 -0.638023 0.652180 -0.048144 -0.194012 0.172500 0.128855 -0.414508 0.042357 0.430024 0.168734 -0.515594 0.256086 -0.186822 -0.366697 0.421999 -0.083675 0.391912 -0.289200 0.438847 0.012813 -0.341411 0.671004 0.009060 -0.067754 0.045490 -0.504192 -0.382845 -0.001179 
2987 0.361652 0.194212 -0.306319 0.234727 0.147309 0.168226 -0.882134 -0.135936 0.022301 0.008427 0.194190 0.014287 -0.122125 -0.521553 -0.018955 0.134578 0.055307 0.180313 1.223894 -0.162240 0.070852 0.017272 -0.384955 0.042200 -0.079118 0.191414 0.036925 0.319986 0.334021 0.107941 -1.105175 -0.400007 0.046227 -0.086162 0.113224 0.189454 -0.185488 -0.250159 -0.126478 -0.753179 -0.474702 0.341147 -0.071756 -0.250790 0.611463 -0.050414 0.973399 0.290732 -0.037011 -0.171771 -0.667742 -0.024430 -0.598523 -0.525952 0.323150 -0.342494 0.160081 0.605635 -0.493416 -0.226797 0.776783 -0.103759 0.138739 -0.170431 0.638457 -0.412644 -0.034481 0.021529 0.072681 -0.603987 0.013038 -0.027501 0.474649 0.326563 -1.040009 -0.531470 0.549324 0.033561 -0.102760 -0.577181 -0.181216 -0.001509 -1.134104 0.394401 0.059696 0.192635 0.222977 0.204904 0.459384 0.451105 0.161690 0.600761 0.294331 0.102737 -0.508476 0.381289 -0.046854 0.273677 -0.410646 -0.319250 0.695516 0.215908 -0.189660 -0.105579 0.426451 -0.185895 -0.366995 0.171365 0.465134 0.340656 0.240692 0.371509 -0.020436 -0.142495 0.087571 0.624281 -0.209036 0.128604 0.138940 0.246379 -0.073632 0.429655 0.965948 0.138910 0.975906 -0.235963 0.209983 0.551328 
2355 -0.537290 -0.518519 0.370849 -0.944424 -0.275571 0.063987 0.365783 -0.404239 -0.338504 -0.004487 -0.035971 -0.512604 -0.117519 -0.405403 -0.591037 0.462518 0.393852 0.076387 0.087229 -0.242716 -0.082107 0.366077 0.109363 -0.422827 -0.093031 -0.102627 0.141291 -0.034157 0.393209 0.271126 0.079121 -0.278183 0.128319 -0.210438 0.011247 -0.090570 -0.162782 0.422098 0.071301 -0.285828 -0.612986 -0.500233 -0.112547 0.637912 -0.180073 0.659452 0.630086 -0.298662 0.185594 0.160032 0.606418 -0.545411 -0.176724 0.132932 -0.375475 0.410893 0.541581 0.107425 0.237827 -0.100767 0.157288 0.104647 -0.352263 0.586289 -0.362588 -0.162496 0.056155 0.185790 0.239993 0.076659 0.436780 -0.183179 -0.147371 -0.021254 0.136237 0.160886 0.222873 0.266490 -0.315505 0.042112 0.439005 0.422354 -1.259130 -0.130435 -0.031920 0.220577 -0.423246 0.624263 0.669686 -0.200454 -0.250942 -0.025198 0.017529 0.350646 0.232982 0.335872 0.101188 -0.567263 0.234791 0.061415 0.112092 0.766871 0.461563 -0.337701 0.000679 0.313623 0.050881 0.011107 -0.089135 -0.153007 0.022072 0.135697 0.273251 -0.263685 0.188865 0.422957 0.545691 -0.124852 -0.576543 -0.070900 0.344658 -0.273025 0.529392 0.018253 -0.009761 -0.230375 0.158874 -0.432484 
1387 0.038395 0.537703 -0.319574 -0.273858 -0.628515 -0.326380 0.306943 -0.585213 -0.118438 -0.295190 -0.332697 -0.267609 -0.225558 0.009422 -0.589949 0.245201 -0.200400 -0.123425 -0.314313 -0.103730 0.045573 0.478951 -0.273696 0.072288 0.274000 -0.194714 -0.430348 -0.135809 0.490436 0.180085 0.043955 -0.413174 0.330917 -0.145409 -0.392840 -0.265194 -0.596825 0.691997 0.237496 -0.236190 0.054703 0.319970 -0.129480 0.851267 -0.269904 0.023035 0.425403 -0.211361 0.324812 0.344765 0.544238 0.061744 -0.147093 0.358929 0.072751 -0.197217 0.150660 -0.150496 0.134004 0.551549 0.156706 0.232477 0.192308 0.560048 -0.199679 0.035512 0.221228 -0.414665 0.126842 0.431400 -0.245219 -0.171003 0.447679 -0.087848 -0.114568 -0.580229 0.125731 0.259984 -0.035137 0.336477 0.173135 0.376290 -0.929440 -0.121954 0.015837 -0.225302 0.465941 -0.538680 0.772953 0.096991 0.003197 0.779587 -0.037899 0.180655 0.326224 0.998464 0.362390 -0.320303 0.233998 -0.288599 -0.165452 0.398331 -0.119737 -0.596212 -0.036357 0.211946 -0.017116 0.044628 -0.058772 -0.412645 0.343026 0.218497 0.051671 0.200969 0.450744 0.976192 0.416985 0.216747 -0.173472 -0.162939 -0.370103 0.344380 -0.062840 -0.253140 -0.049724 0.162680 -0.482508 -0.577883 
1213 -0.061780 -0.246110 0.282626 0.101325 -0.484403 0.000712 -0.467429 -0.711777 0.354306 0.600488 -0.031208 -0.140807 0.461532 -0.305672 0.070643 0.307790 -0.264034 0.384969 0.819104 -0.418241 -0.202914 -0.059415 -0.409702 -0.640067 -0.411116 -0.361464 -0.147835 -0.487941 -0.038277 0.095368 0.147765 -0.160583 -0.158702 -0.028300 0.430982 -0.291928 -0.629767 -0.343717 0.143665 0.351866 0.158931 0.409045 -0.351354 0.129358 -0.238026 -0.309277 0.146875 0.318877 0.154823 -0.432152 0.179297 0.503905 0.022167 -0.720560 0.277869 -0.117609 0.852766 0.093682 0.029980 0.542789 0.566375 -0.264513 0.135037 -0.078226 0.377557 0.461052 -0.193950 0.414186 -0.145700 0.066745 0.088740 0.424562 0.867922 0.445002 0.178783 -0.298394 -0.153476 0.236734 0.309357 -0.276773 -0.141668 0.177431 -0.925511 -0.183129 0.049995 -0.001819 -0.677746 0.096688 -0.095311 0.225052 -0.073999 0.215521 -0.146578 -0.475884 0.091767 0.353993 0.462699 0.276582 -0.409726 -0.770206 0.198592 0.448338 -0.097158 0.051429 -0.069275 0.038163 -0.369063 -0.415595 0.509473 0.096169 0.311948 0.191849 0.594919 0.164888 0.436968 -0.048928 0.255999 0.668440 0.267919 0.387118 0.166525 0.273665 0.563121 0.263122 0.199248 0.060563 0.228917 -0.420834 
1036 0.035965 -0.316162 0.096103 -0.106851 -0.324390 -0.326725 0.161723 -0.913041 -0.078168 0.006585 -0.525847 -0.738832 -0.266402 0.084727 0.120076 0.772009 0.372833 -0.660677 -0.372168 -0.060734 0.227658 0.083617 0.425230 -0.195626 -0.319127 0.256502 -0.332431 -0.520437 0.420114 0.144063 0.079589 0.515017 -0.454654 -0.350538 0.187988 -0.090049 -0.126982 -0.082141 0.395308 0.239228 0.438239 0.110657 -0.430979 -0.560330 0.154483 -0.134643 0.276441 -0.094900 -0.035969 0.620349 0.420174 0.076484 -0.373229 0.102229 -0.305610 0.423039 0.504340 -0.071989 -0.125713 -0.408404 -0.646505 -0.274535 0.141041 0.103368 0.245116 0.619260 -0.198674 0.550379 -0.091984 -0.353195 -0.516335 0.235238 -0.328522 -0.045325 -0.495742 -0.441692 0.065884 -0.405757 -0.307168 -0.126477 0.073858 -0.173152 -1.462084 0.069528 -0.253903 0.381920 -0.570994 0.065070 -0.190043 -0.188742 0.760249 0.322963 -0.120300 -0.228050 0.558200 0.569121 0.709135 0.054839 0.082189 -0.592702 0.809493 0.603731 -0.403987 0.318060 -0.053416 0.148363 -0.300766 -0.346437 0.842424 -0.371519 -0.193262 -0.119745 -0.039291 0.291267 0.036504 0.009766 0.470251 0.225694 0.169393 0.425470 -0.036610 -0.263677 -0.104919 -0.004982 -0.438545 0.244861 0.232718 0.046254 
1610 -0.121558 -0.249820 0.163509 -0.203311 -0.056153 0.286354 -0.181574 -0.352321 0.100273 -0.238465 -0.283125 -0.666305 0.177798 -0.279512 -0.118421 -0.240344 -0.097627 -0.176598 0.245294 0.142653 -0.144004 0.013090 -0.057013 0.405393 0.189954 -0.553025 0.145024 -0.181420 -0.013099 -0.089939 -0.292295 -0.080073 0.023399 0.476434 -0.485343 -0.300264 -0.597615 0.047533 -0.180698 0.408060 0.214359 0.345883 -0.502204 -0.244012 0.234911 0.223729 0.326978 0.083319 0.010898 0.134613 -0.159017 0.363289 -0.825277 -0.322531 0.272591 0.432522 0.314195 -0.194162 0.441886 0.071998 0.046380 0.060226 0.666702 -0.016966 0.432202 -0.407796 0.044484 -0.421393 -0.060025 -0.361180 0.095317 -0.438952 -0.191504 0.381289 0.021713 -0.693301 0.051742 0.609095 0.403035 -0.452555 0.095624 -0.337104 -1.535280 -0.492225 0.120586 0.067166 -0.448303 0.190609 0.397947 0.862706 -0.243773 -0.171955 -0.384471 0.023059 -0.125397 0.418727 -0.289417 -0.028049 0.341541 0.194194 -0.244909 0.415705 -0.515990 -0.437695 0.595216 -0.233130 -0.059812 -0.010446 0.024732 -0.326968 -0.296296 0.028985 -0.228817 -0.508918 0.154275 -0.368344 0.080642 0.071957 0.293302 -0.184808 -0.014179 -0.012038 0.776126 -0.111999 0.295037 -0.391444 -0.018813 0.146600 
2791 -0.033110 0.024480 -0.122012 0.148753 -0.672759 -0.258414 -0.099542 -0.580893 0.844972 -0.689116 -0.569070 0.017473 0.495373 -0.376171 -0.129844 -0.253264 -0.105538 -0.396178 0.569062 0.010336 -0.097462 0.675968 0.336739 0.070279 -0.119236 -0.135570 -0.331148 0.023092 0.077391 0.116003 -0.016765 0.541964 -0.454710 -0.399169 -0.293206 -0.012543 0.033296 0.021156 0.152189 0.165214 -0.187081 -0.282301 -0.226165 0.032391 0.099214 0.035306 0.385772 -0.152534 0.328364 0.963836 0.180843 -0.171041 0.457577 0.373107 -0.317896 0.368579 0.606067 0.092530 -0.310619 -0.098516 -0.315777 -0.341163 0.066889 -0.580465 -0.249936 0.286334 -0.124283 1.243957 -0.155396 -0.380600 -0.128675 -0.189581 0.035823 0.130656 0.103650 0.181232 -0.296057 -0.235973 -0.407923 0.405365 0.292752 -0.317254 -0.866884 -0.195922 -0.155708 -0.238696 -0.546893 0.447482 0.108968 -0.315540 -0.006309 0.114942 -0.031927 0.248501 -0.126489 0.668097 0.645359 -0.014352 -0.305051 -0.500342 0.662010 0.764580 -0.568232 -0.441963 0.054600 -0.131256 -0.210211 -0.127743 0.411482 0.254695 0.128629 -0.000314 0.277651 0.398254 0.573818 0.154433 0.622564 0.553960 -0.185741 0.526876 0.285442 -0.222108 0.243816 0.083990 -0.361035 -0.306934 0.249196 -0.578943 
34 0.549627 -0.263169 -0.164552 -0.309183 -0.658573 0.066934 -0.213337 -0.833677 0.249427 0.216162 -0.321542 -0.080620 -0.400374 -0.338813 0.733372 -0.290352 -0.123968 -0.186706 0.039355 0.208704 -0.119944 0.129493 -0.281782 -0.110519 -0.524733 -0.579169 -0.367292 -0.128621 0.182836 0.209626 -0.397568 -0.110793 -0.700270 -0.053948 -0.218604 0.066982 -0.407355 -0.372699 -0.325376 0.294598 -0.498340 0.448930 -0.050707 -0.541286 -0.000570 -0.141342 0.347329 -0.251143 0.515936 0.274557 -0.143822 0.091246 -0.245956 -0.156915 -0.170337 0.398394 0.573931 0.098528 -0.047520 0.156658 0.050340 -0.473933 0.255231 0.006919 -0.066177 -0.162084 -0.658075 0.448260 0.480633 -0.079065 -0.152344 0.164610 -0.176306 -0.220454 -0.046943 0.215525 -0.060255 0.004778 0.277288 0.084449 -0.236053 0.402824 -1.104777 -0.188696 -0.372372 0.171364 0.015341 0.310901 0.358945 0.082634 0.220634 0.283987 0.072497 -0.476022 0.415885 0.111884 0.351665 0.046655 -0.476103 -0.285849 0.200873 0.464593 -0.288592 0.197458 0.288850 0.052011 0.366507 -0.231985 0.660468 -0.522260 0.422159 0.362292 0.351680 -0.011638 0.442340 0.274027 -0.204155 -0.049507 -0.336518 0.771196 -0.182148 0.074152 -0.611706 -0.039906 0.481041 -0.254783 0.028113 -0.150797 
1291 -0.450342 0.074047 -0.167609 0.188670 -0.446733 0.301336 0.012078 -0.573795 0.316605 -0.147852 -0.001344 -0.726734 0.179053 0.225982 -0.407802 0.139777 -0.569120 -0.735717 0.620298 -0.173262 -0.393367 0.019915 0.355216 0.313845 0.010921 0.574264 0.133145 -0.379990 0.185848 0.046788 0.041051 -0.202561 -0.067905 0.278094 0.308027 -0.262099 -0.347675 0.151263 0.334853 -0.850428 -0.123884 0.253400 -0.203246 -0.322266 0.695775 -0.282696 0.258477 -0.044682 -0.151242 0.074365 0.043334 0.556217 -0.791095 -0.285995 0.115928 -0.251117 0.421828 -0.219394 0.023472 -0.320012 0.076664 -0.295654 0.054374 0.296038 0.109638 0.018656 0.133373 -0.155675 -0.092304 -0.585107 0.505502 -0.443606 -0.199133 0.325911 -0.579388 -0.670226 -0.058962 0.071645 0.125175 0.126874 -0.116432 -0.090886 -0.993518 -0.476022 0.216213 0.051502 -0.482726 -0.032647 0.780485 0.037537 -0.003370 -0.138584 -0.230481 -0.425016 -0.217441 0.240562 0.199948 0.134910 -0.090036 0.093813 -0.428402 1.034153 -0.498893 -0.001318 0.645960 -0.082717 -0.332182 0.143373 -0.132869 0.267080 -0.350720 0.037559 -0.444417 -0.759320 0.327637 -0.337224 -0.524462 0.683771 0.324895 -0.076881 -0.273247 0.115590 0.240031 0.217567 -0.290657 -0.589225 -0.038770 -0.275337 
3175 -0.256465 -0.209281 0.055564 -0.542568 0.353372 0.027014 0.025321 -0.779719 -0.491086 0.016508 0.181740 0.127324 -0.185850 -0.174410 0.080548 -0.108583 -0.307153 -0.057768 0.179565 -0.292837 -0.417096 0.321657 -0.207273 -0.010338 -1.078947 0.063182 0.156862 0.392376 0.170955 0.061724 -0.023461 0.174012 -0.028279 -0.027632 -0.158686 -0.051327 -0.260161 0.362704 -0.004708 0.004787 0.417116 -0.543370 0.190791 -0.022599 -0.304207 -0.060231 0.605380 -0.386770 0.523466 -0.265811 0.751131 0.003450 -0.529693 0.186522 -0.281298 -0.121784 0.343866 -0.204961 0.506364 0.331078 0.573382 -0.080243 -0.757005 -0.186336 0.655621 -0.121412 0.246922 0.036515 -0.246527 0.400276 -0.063081 0.315912 -0.691553 -0.070414 0.037483 -0.113948 0.665298 0.352694 -0.516451 0.105207 -0.072970 0.152216 -0.730540 0.300009 -0.091814 -0.169980 -0.121471 0.263892 0.497356 -0.242589 -0.308816 0.442558 0.083051 0.078937 -0.161477 0.665918 0.377713 -0.182163 -0.453555 -0.239090 0.239543 0.990998 -0.240088 0.019186 0.229177 0.185092 0.112129 0.121339 0.037936 0.156658 0.140475 0.091112 -0.219013 0.414657 0.144757 0.393264 -0.357456 -0.196711 -0.436511 -0.043391 -0.069590 0.161569 0.149122 -0.322448 0.637499 0.421195 -0.022423 0.149904 
924 0.575935 -0.010450 0.031471 0.904094 0.111218 0.227050 -0.013320 -0.954760 0.237681 0.120989 0.179361 -0.224155 -0.206699 0.443619 -0.240463 -0.168358 -0.161496 0.326691 0.507116 -0.281303 -0.463123 0.128412 0.001189 0.398062 0.149775 -0.225023 -0.503661 0.080433 0.185485 0.498479 -0.461090 -0.076236 0.453980 0.461316 -0.499102 -0.042648 0.036478 0.387403 0.208167 -0.004744 0.011667 0.233426 -0.072595 -0.304177 0.522117 0.123559 -0.014299 -0.011002 0.278863 -0.381923 -0.341706 0.085505 -0.496206 -0.335427 0.705550 0.322299 0.218357 0.145729 -0.402980 -0.371450 0.087056 0.352616 -0.084648 0.334414 -0.035185 0.424004 0.346755 -0.309144 0.091260 0.076576 -0.014906 -0.325943 0.040802 -0.382266 0.360831 -0.965024 -0.302370 0.388173 0.093212 -0.062765 -0.326790 0.218687 -0.981338 -0.030955 -0.019572 -0.120560 -0.531001 -0.085267 0.260223 0.494621 -0.415753 -0.365267 0.135042 0.274032 0.112272 0.112496 0.489936 0.362024 -0.050380 0.597395 -0.734824 0.566709 -0.569188 0.251283 -0.099721 -0.356230 -0.047331 0.028395 -0.072577 -0.262191 -0.261081 -0.235439 -0.610649 -0.123687 0.182662 -0.161364 0.524214 -0.179384 -0.329063 0.415301 0.162481 0.972558 0.401995 -0.075534 -0.340843 -0.921311 -0.095773 -0.064078 
1127 0.225845 0.882546 0.504272 -0.073282 -0.110602 -0.130021 0.280802 -0.470607 0.083086 -0.256411 0.357921 0.137833 -0.397840 0.060188 -0.622803 -0.116699 -0.204697 0.507562 1.065083 -0.513562 -0.653430 0.236165 0.099197 -0.193012 0.000001 0.072983 -0.199398 -0.293645 0.315631 0.180967 0.350480 -0.300606 -0.015413 -0.366373 -0.362094 -0.501449 0.781976 -0.399253 -0.078470 -0.197790 -0.190027 0.309898 0.053018 0.181636 0.140265 0.678090 0.153259 0.253971 -0.013402 0.038027 0.242321 -0.303923 -0.315629 -0.311739 -0.251856 -0.043074 0.698985 0.162102 0.064241 -0.062257 0.693299 -0.085438 0.405982 -0.608441 0.391698 -0.215747 0.454688 0.032515 -0.213058 -0.228569 -0.548007 0.032280 -0.670633 0.219188 -0.110798 -0.504478 -0.091428 -0.210634 -0.400956 -0.329790 -0.452044 0.107307 -0.543164 -0.738128 -0.320999 -0.387311 0.201942 0.504619 0.331659 0.465369 0.239471 -0.039543 0.458377 0.354125 0.866175 0.409153 0.151162 -0.223862 0.242967 0.627890 -0.201277 0.578886 -0.246584 -0.313768 0.013915 0.280151 0.196923 0.013953 0.027982 -0.134456 -0.307741 -0.167399 -0.123510 0.496297 0.751144 0.417468 0.010840 -0.394586 0.052750 -0.094996 -0.078554 -0.102403 0.436699 -0.128913 -0.312265 0.353157 -0.397568 -0.019943 
1136 0.474950 0.034811 -0.111777 -0.177247 -0.122184 -0.040444 0.002529 -0.897503 0.547487 0.393299 0.118976 -0.163293 0.201401 0.197846 -0.206681 -0.405678 -0.581181 0.302421 0.515469 -0.120691 -0.266920 -0.217003 -0.049113 0.097472 -0.445070 0.023696 -0.037854 -0.488968 -0.200263 -0.404923 -0.187558 -0.224567 0.222737 0.298073 -0.216863 -0.799449 0.517996 0.310236 -0.179196 0.232260 -0.090667 0.295162 -0.041057 0.028142 -0.580401 0.288498 0.364251 -0.144090 -0.261240 -0.402845 0.447762 -0.312471 0.170404 -0.387556 -0.408461 0.493598 0.546576 0.675856 0.241692 0.209205 0.316666 0.012321 -0.019586 -0.109004 0.421207 0.029657 0.297664 -0.063500 0.331370 0.324719 -0.281454 -0.080655 -0.604169 -0.307083 -0.505090 -0.879864 0.271901 -0.218947 -0.179747 0.084893 -0.720462 0.686473 -1.020054 -0.277169 0.289185 -0.464760 0.081588 0.354410 0.185158 -0.454355 -0.053800 -0.439602 0.491885 0.690193 0.450822 -0.056887 -0.111534 0.543479 -0.010641 0.125538 0.143761 0.715717 -0.412794 -0.077791 -0.319741 -0.058294 -0.133303 -0.142792 0.097244 0.058368 -0.630989 -0.212682 0.187956 -0.083354 -0.154069 0.047896 -0.156358 -0.214208 0.143357 -0.009800 -0.463715 -0.045540 0.479625 0.029524 -0.561421 0.512162 0.475434 -0.089810 
2000 -0.118216 -0.003529 0.185703 -0.042352 -0.092028 -0.331255 -0.144059 -1.044034 0.616450 0.162026 -0.487605 -0.472008 0.415465 -0.252383 -0.437378 -0.138522 -0.247325 0.353582 0.567721 -0.025251 0.154354 -0.151030 0.454941 -0.346696 -0.071275 0.023182 -1.210584 0.023280 0.213839 0.207835 0.269890 0.451233 0.090357 0.033331 -0.529614 0.182633 0.001047 0.039650 0.073451 0.308573 0.331163 0.067555 -0.439779 -0.217380 -0.097660 -0.192030 0.764395 0.300546 0.176685 0.290462 -0.217538 -0.272208 0.345603 0.891506 -0.363836 -0.028644 0.508016 -0.114999 -0.088803 0.629701 -0.183360 0.204799 0.044047 0.116940 -0.404433 0.032896 0.019372 0.735386 0.091533 -0.084666 0.059101 0.237253 -0.030554 -0.070548 -0.225337 -0.150574 -0.178574 -0.541396 -0.270317 0.293926 0.150456 -0.103452 -1.417758 0.308624 -0.415504 -0.184854 0.012185 0.157794 0.310101 0.624124 0.298613 0.585477 -0.241139 -0.437937 -0.147562 0.526800 -0.254762 -0.015863 0.381836 -0.595992 0.347231 0.729048 -0.257184 0.203813 -0.071443 0.089254 -0.473712 -0.367524 0.279710 -0.570384 -0.406484 -0.112686 0.319924 0.345862 0.490926 0.073052 0.325354 1.098163 0.103604 0.211742 0.483324 -0.466976 0.142622 0.169234 -0.145402 0.053332 -0.095271 0.067599 
3114 0.289334 -0.444296 0.165859 0.351553 0.040594 -0.101358 -0.115929 -1.221723 -0.035637 0.248665 0.491032 -0.281903 0.045438 0.219407 -0.269236 0.080718 -0.564451 -0.133058 -0.396997 -0.068485 -0.099330 0.391849 -0.586025 0.120773 -0.030125 0.381307 0.206051 -0.074848 0.063831 0.317630 0.002219 -0.132607 0.114800 -0.268644 -0.428915 -0.468563 0.401389 0.525389 0.027305 -0.391482 0.062851 -0.215130 -0.242823 0.348121 -0.080414 0.066858 0.181641 -0.104074 0.164996 -0.224947 0.356242 -0.058284 -0.037144 0.183305 0.140635 -0.267278 0.409283 0.338138 0.306773 0.363406 0.144602 -0.401756 -0.443076 -0.292241 0.215467 0.019543 -0.005361 0.176889 0.295451 -0.113222 -0.335591 -0.274176 0.153300 0.237601 0.079352 -0.339084 0.097908 0.513522 0.031581 -0.108707 -0.576971 0.058381 -0.327107 -0.286474 -0.186604 -0.040149 0.165462 0.504679 0.975923 -0.545535 0.085159 0.024402 -0.030693 0.222442 0.221336 0.348264 -0.431041 -0.646270 -0.317913 -0.172318 0.358454 0.978828 -0.065204 0.063792 0.346783 0.112330 0.318126 0.014290 -0.132584 -0.493401 0.150634 -0.148887 0.037856 0.232368 -0.082951 0.617255 0.374146 -0.194553 -0.384300 0.103737 0.316318 0.598930 -0.221035 0.604362 0.161215 -0.089365 -0.018148 -0.272553 
1704 -0.241104 -0.171778 0.264284 -0.309719 -0.465858 0.256842 0.050850 -0.602402 -0.450155 -0.021689 0.268861 -0.610815 0.130162 -0.375977 -0.491529 0.098765 0.042601 0.492612 -0.359822 -0.030287 0.041557 0.252628 0.312533 0.222007 -0.178287 -0.085402 0.027837 -0.617167 0.441346 -0.278277 -0.056133 -0.185116 -0.226792 -0.026585 -0.708770 -0.066226 -0.346415 0.453839 -0.031863 -0.670956 0.232188 -0.583417 -0.270221 -0.115018 -0.363074 0.404626 0.127588 0.144681 0.001606 0.082922 0.303856 -0.232032 -0.046722 -0.196985 -0.835209 0.140834 -0.137130 0.039931 0.188472 0.180208 0.218919 -0.142223 -0.058047 0.321693 0.235332 0.333476 0.270215 0.173261 0.416100 -0.178882 0.075316 -0.023013 -0.245873 0.012978 0.181123 -0.050359 0.034267 -0.265637 -0.440141 0.005527 0.260734 0.359162 -1.687844 0.197438 0.211965 -0.181229 0.100265 -0.128918 -0.280138 0.331442 -0.343527 0.431458 -0.191884 -0.383725 0.448317 0.577464 -0.359484 -0.690010 -0.132543 -0.056485 0.462154 0.345089 -0.110662 -0.348095 -0.082769 0.022289 0.205033 0.470087 0.164599 -0.162866 0.578282 0.491137 -0.046153 0.135515 0.263394 0.989489 0.169700 0.046386 -0.669534 0.308214 -0.107445 -0.009886 0.298093 -0.151209 0.150956 0.110561 -0.013529 -0.404089 
1307 0.221201 -0.047169 -0.148205 -0.133160 -0.410505 -0.208468 0.087616 -0.665941 0.424067 0.450306 -0.119143 -0.817674 -0.050392 0.710023 -0.505682 0.152664 0.496628 0.137187 -0.177917 -0.285560 -0.164829 0.188913 -0.664149 -0.307387 -0.222903 -0.213428 -0.084527 -0.188465 0.268105 -0.510972 0.128442 -0.373860 0.018257 -0.372514 -0.405588 0.001654 0.332097 0.209411 -0.122704 0.083076 -0.269694 0.128575 -0.226762 0.130896 0.432068 0.553499 0.340196 -0.088620 0.373045 0.021402 -0.282323 0.418789 0.011041 0.379350 -0.204820 -0.023217 -0.155329 0.751203 0.233295 1.065229 0.683205 0.255697 -0.009721 0.169902 -0.243468 0.135810 -0.226957 -0.402966 -0.219530 0.110558 -0.914445 -0.170596 -0.250686 0.267632 -0.416165 -0.151424 0.588967 0.221066 -0.099223 0.119758 -0.002440 0.381808 -1.063426 -0.157928 -0.286446 -0.496321 0.092696 0.066347 0.184143 0.156276 0.438446 -0.275567 -0.022863 0.619181 0.698259 0.115381 -0.023399 0.147114 0.040150 0.526268 0.457792 0.778515 -0.491248 -0.152137 0.287081 -0.091338 -0.060208 0.372195 -0.571860 0.384204 0.323313 0.204540 0.459819 -0.681317 -0.621171 0.130484 -0.169459 -0.000377 -0.072681 -0.295047 -0.059121 -0.243587 0.298147 -0.106665 -0.330722 -0.052763 -0.070504 -0.263973 
377 0.461104 -0.090448 0.182562 0.134105 0.029840 -0.362112 -0.251802 -0.909989 0.158605 0.269709 -0.795217 -0.407234 0.329620 -0.368554 0.119068 -0.348371 -0.480462 0.056780 0.509144 -0.287773 0.305364 0.213864 0.538108 0.131473 -0.702036 -0.202331 -0.434224 -0.261288 0.440738 0.808643 -0.121078 -0.140363 -0.365930 0.213496 -0.016796 0.044410 0.321023 -0.408796 0.305979 0.220499 0.285047 -0.004206 -0.768246 -0.091163 0.062227 -0.237915 0.861625 -0.435225 0.250238 0.262647 -0.207494 0.173032 0.430734 0.025092 0.228743 0.127217 0.073665 0.055066 0.181819 0.184853 -0.384429 -0.490418 0.319121 -0.988142 0.193008 0.177227 0.102954 0.196550 -0.577400 -0.122685 0.240844 0.190502 0.295316 0.110006 -0.319467 -0.159553 -0.134511 -0.103913 -0.126348 -0.037279 -0.253038 0.092334 -1.054163 -0.547351 0.457181 -0.000393 -0.291109 0.581812 -0.063655 0.395513 0.237427 0.205909 0.021666 -0.391434 -0.197054 0.283209 0.425437 0.162729 -0.118872 -0.215546 0.316169 0.373207 -0.413714 0.545996 0.846510 0.440216 0.634511 -0.401167 0.390100 -0.116586 0.211328 0.266816 0.502609 0.795609 0.256644 -0.019437 -0.095403 0.219648 -0.077635 0.479037 0.029985 0.033884 0.051956 0.001443 -0.103119 -0.053876 0.164806 -0.190199 
1968 -0.404361 -0.069411 -0.147034 -0.121443 -0.544574 0.037627 -0.021789 -0.373007 -0.072454 0.010539 -0.124475 0.202952 0.030175 0.437253 0.535944 -0.277362 -0.064331 -0.172297 0.249944 -0.506761 0.160218 -0.170998 -0.353189 -0.127976 -0.271645 -0.040697 -0.392824 0.034569 0.367706 0.233833 -0.122514 -0.054480 -0.257659 -0.204409 0.028689 0.287979 0.254947 -0.256755 0.175604 0.335209 0.058047 0.152414 -0.154704 -0.830067 -0.034299 -0.202789 0.219519 -0.396581 0.685151 0.324647 0.038264 0.467077 -0.371135 0.433111 -0.469562 -0.088536 0.578147 0.325769 -0.201098 -0.061294 0.122862 -0.408804 0.091799 -0.229766 -0.349912 -0.143448 -0.320448 0.238218 -0.289354 -0.162487 -0.140263 0.316097 0.357481 -0.325332 -0.009170 -0.007383 0.252823 -0.301061 -0.312759 -0.102502 -0.312893 0.617981 -1.045421 -0.226106 -0.453740 0.294499 -0.461069 0.026768 0.811404 -0.174924 0.051616 -0.256858 -0.404986 -0.505262 0.501922 0.424889 0.166280 -0.192904 0.091530 -0.237004 0.621693 0.373619 -0.639141 0.166144 0.179468 0.105144 0.302097 -0.322622 0.333788 -0.280562 -0.012905 0.458420 0.525852 0.530061 0.261208 0.434024 -0.038857 0.210503 -0.316710 0.312803 -0.267996 0.809081 -0.214868 0.203305 0.432143 -0.263361 -0.287512 -0.424726 
2599 0.014146 -0.586722 0.719873 -0.092304 -0.460541 0.205953 0.335982 -0.235826 -0.213459 0.348156 0.309006 0.122445 -0.002481 0.306022 0.025205 -0.305495 -0.478667 -0.528318 0.752763 0.184254 -0.462470 -0.126739 -0.255803 -0.455137 -0.743404 -0.333351 -0.006050 -0.039388 -0.118243 0.160965 -0.136919 0.140965 -0.476403 0.019079 0.081960 0.045762 0.279985 -0.343755 -0.250202 -0.114963 0.168600 0.182072 0.052043 -0.064816 -0.304650 -0.434716 0.734091 -0.428695 -0.150543 0.057485 0.121921 0.245189 0.033761 -0.251227 -0.136637 0.043613 -0.176359 -0.390087 -0.221023 0.579206 0.049964 -0.208924 -0.162724 -0.556810 0.000420 0.164811 -0.143462 0.371423 0.444758 -0.006535 -0.475888 0.102016 0.477278 -0.718678 -0.096607 0.218774 0.195514 -0.221087 -0.158778 0.229935 0.522145 -0.032733 -1.149661 -0.302275 -0.615255 0.562026 -0.037870 0.102757 0.529895 -0.056094 -0.058808 -0.059150 -0.107975 -0.212415 0.100135 0.419378 0.195867 -0.071620 -0.189717 -0.758603 -0.000795 0.569549 -0.242270 0.319788 -0.359922 0.082274 -0.443084 0.076012 0.153878 -0.160608 -0.313536 0.196312 0.167416 0.609389 -0.007623 0.379047 0.153918 -0.052602 -0.796724 0.294438 -0.278733 0.476861 0.217627 -0.019013 0.161744 -0.249465 -0.530190 0.015013 
780 0.193300 0.405404 -0.381301 0.058112 -0.022003 0.215570 -0.093500 -0.224499 0.174794 -0.269473 -0.396742 -0.867782 -0.245565 0.213016 0.338688 0.297020 -0.168827 -0.221277 0.735498 -0.545788 -0.220957 -0.487373 -0.203231 0.424097 0.069801 -0.149376 -0.444062 -0.189551 0.477955 0.304203 0.048045 -0.160414 0.271193 0.553604 0.346009 0.099068 -0.111017 0.144080 0.484622 0.038693 0.229581 0.084173 0.331287 -0.256570 0.321326 0.126824 0.127276 -0.408880 0.317400 -0.165829 -0.276829 0.739512 -0.633271 -0.523673 0.371318 0.509649 0.039807 0.060031 0.100974 0.129568 0.701363 0.285120 0.384802 -0.057144 0.405332 0.137110 0.020209 -0.096829 -0.530715 -0.098209 0.995104 -0.283799 0.072529 -0.368768 -0.133464 -0.302938 -0.080346 0.750501 0.277022 -0.271432 -0.329108 -0.430496 -1.257810 -0.679289 0.076052 -0.312426 -0.303901 -0.082917 0.549798 0.043098 -0.350942 0.187092 -0.314976 0.222517 -0.366584 0.375291 -0.079011 0.175563 0.577487 0.062151 -0.200761 0.473518 -1.014716 -0.031117 0.340360 0.392579 -0.510058 -0.228184 0.091131 -0.216263 -0.223954 -0.343058 -0.330664 -0.511484 0.195082 0.203847 0.349960 -0.185446 -0.272653 0.045082 -0.343911 0.569062 0.436568 -0.292104 -0.043920 -0.351208 -0.090578 0.379069 
2918 0.404900 -0.328275 -0.476798 -0.339289 -0.392395 -0.344308 0.278136 -0.793033 -0.058334 0.076452 -0.127722 -0.161376 -0.415892 0.032306 0.895562 0.081082 -0.281102 -0.387041 0.419501 -0.228587 0.250008 0.218005 -0.309757 -0.227657 -0.231297 -0.294721 -0.252937 0.158617 -0.195002 0.133194 -0.168668 0.130916 -0.261859 0.567398 -0.328279 0.098909 -0.275671 -0.438768 -0.281382 0.126412 0.343040 -0.071811 -0.211215 -0.599397 0.274793 0.147996 0.919453 -0.222112 0.757085 0.564718 -0.012129 -0.114478 0.113810 0.146048 0.303787 0.358466 0.226016 0.061443 -0.175861 0.054549 0.159333 -0.479647 0.305127 -0.510633 0.145297 0.124817 0.149403 0.495234 0.231067 -0.519455 -0.529097 0.334187 0.200715 -0.064327 -0.116486 0.210667 0.178755 -0.221641 -0.059720 0.310135 -0.596223 0.178399 -1.112679 -0.265732 -0.686314 0.229395 -0.527434 0.384957 0.366723 0.420001 0.456927 -0.050584 -0.107898 -0.637432 0.697292 0.115686 0.444061 -0.156864 0.003603 -0.307291 0.326423 0.680635 -0.407951 -0.252730 0.646109 0.538228 -0.305078 -0.092403 0.435450 0.026723 0.294539 0.361173 0.165202 0.333604 0.425116 0.132768 0.131660 0.003342 0.750030 -0.055029 -0.100596 -0.145437 0.019100 -0.017178 0.456846 -0.192675 0.167527 -0.548156 
3793 0.204091 0.340602 -0.346851 -0.503035 0.617204 -0.102775 -0.074355 -0.589526 0.642942 -0.020987 -0.700447 -0.699797 -0.230180 -0.520354 0.520201 0.393722 0.431030 -0.153912 0.632224 -0.219012 -0.405375 -0.375865 -0.284163 -0.019539 0.089179 0.291654 -0.093440 -0.188280 -0.007647 0.403310 -1.240361 -0.007409 -0.248995 -0.362718 0.051517 -0.187314 0.241788 -0.480943 -0.122448 -0.761712 -0.199160 0.342151 -0.066850 -0.224667 -0.240071 0.310938 -0.182878 -0.026985 0.114421 -0.414225 -0.274575 -0.184254 -0.309762 -0.263396 0.301912 0.259584 -0.007153 -0.356929 -0.262011 -0.441963 0.284880 -0.105224 -0.164272 0.151477 0.292612 0.267313 0.739253 -0.296104 -0.647882 -1.223117 0.129278 0.114166 0.104092 -0.137073 -0.512400 -0.489281 -0.102399 0.210702 -0.122319 -0.149712 0.333604 0.138233 -1.056809 0.614574 -0.002824 -0.114208 0.340526 0.135102 0.815592 0.770193 -0.183198 0.193640 0.030960 -0.108768 0.204445 0.178796 -0.010652 -0.225866 -0.584124 0.083640 -0.102669 0.866780 -0.112826 -0.059811 0.376378 -0.486955 -0.855402 0.180177 0.165607 -0.125002 -0.714595 0.335265 0.215695 0.477328 -0.088399 0.400701 0.110853 -0.253213 -0.280257 0.188979 -0.112452 0.800559 0.386008 -0.500992 -0.470427 -0.517256 -0.330021 0.397611 
2797 0.212300 0.364609 0.134629 0.024859 -0.153751 0.309061 -0.340130 -0.631074 0.716357 -0.056668 -0.648161 -0.492348 0.071536 -0.427872 -0.300427 0.059020 0.392731 0.157716 0.427918 0.132902 0.436497 0.407950 0.447394 -0.087756 0.262893 -0.410820 -0.146364 -0.402524 0.031841 0.219103 -0.114953 0.317712 -0.027382 -0.088024 -0.686562 -0.172939 -0.068140 -0.325036 0.589642 0.180513 0.014169 -0.446308 -0.651295 -0.127760 -0.037997 0.500695 1.121085 -0.103185 0.735771 0.262053 0.261753 -0.366915 0.196090 0.225494 -0.355254 0.155752 0.521760 0.306532 -0.426812 0.295458 -0.566994 0.185556 -0.112381 -0.039125 -0.056111 0.210282 -0.377397 1.158877 -0.222700 0.394535 -0.219013 0.151321 -0.169563 -0.043978 -0.613376 -0.275050 -0.101336 -0.335359 0.096966 -0.102603 0.472753 -0.247990 -1.154976 -0.072443 -0.461180 -0.189229 -0.688499 0.304364 0.070216 0.757714 0.026678 0.082797 0.183533 0.031813 0.151582 0.266948 0.483752 0.185079 -0.133224 -0.525206 0.593808 0.529455 -0.582306 -0.169077 -0.215873 0.196026 0.127854 -0.281262 0.389103 -0.260353 0.259249 -0.248065 0.578472 0.274887 0.339323 0.137552 0.100491 0.661065 0.139379 0.617706 0.141754 -0.130862 -0.019661 0.337984 -0.274667 0.107604 -0.234496 -0.108670 
1304 -0.071071 -0.293113 -0.092845 0.024640 -0.518225 -0.236052 0.259580 -0.544096 0.474623 0.977970 0.022893 -0.427327 0.062053 -0.041937 -0.546232 0.939106 -0.060948 -0.034995 0.347505 0.130131 -0.066461 -0.083130 -0.057006 -0.318601 -0.351133 -0.254745 -0.072973 0.355786 -0.183526 -0.325144 0.334218 -0.266147 -0.101085 -0.575762 -0.604293 -0.516780 -0.003629 0.416518 -0.507527 0.023559 -0.588825 0.070823 -0.202634 0.065792 -0.116559 0.232774 0.072400 -0.403203 -0.181564 0.160759 0.242594 0.557459 -0.013675 0.236274 -0.204486 -0.005095 -0.107629 0.262179 0.234806 0.188925 0.706005 0.172134 0.523651 0.088029 -0.026601 -0.199129 -0.230510 -0.159823 0.156521 0.023103 -0.421097 -0.240085 -0.193102 0.109156 -0.514527 -0.519526 0.244908 0.558183 -0.102156 -0.194090 0.135807 0.400156 -0.858860 0.125418 -0.407458 -0.533258 0.612741 -0.286860 0.186726 0.484780 0.151425 -0.309848 -0.472679 0.499961 -0.082565 0.404421 0.260248 -0.009284 -0.133836 0.504809 0.661712 0.699798 -0.754434 -0.037809 0.336427 0.107695 0.291477 0.474086 -0.278982 0.107700 0.141623 0.239380 0.099452 -0.566220 -0.145758 0.286846 0.439278 0.194059 -0.295618 -0.228565 0.088352 -0.095011 0.359638 -0.058408 -0.765578 0.404415 -0.049639 0.062332 
32 0.253813 -0.083130 0.216213 0.014809 -0.180630 -0.260661 -0.516541 -0.641937 0.030486 0.241528 -0.557967 0.291583 -0.285932 -0.046632 0.380319 -0.099729 -0.284819 -0.052767 0.577976 -0.237000 -0.219745 0.401510 0.089390 -0.322750 -0.264548 0.383791 -0.640176 -0.071147 0.359976 0.769472 0.103562 0.409829 -0.456009 -0.162499 0.182111 -0.546538 -0.509774 -0.223699 -0.108700 0.186572 0.000038 -0.311344 0.188365 -0.487959 0.095037 -0.183529 0.581101 -0.158399 0.438076 -0.336831 -0.544757 0.327336 -0.462135 -0.090334 -0.290040 0.284694 0.451544 0.156545 -0.228211 -0.233424 0.017320 -0.338924 -0.309577 -0.634561 -0.388372 -0.286979 -0.245884 0.346318 -0.129526 -0.287603 -0.269802 0.648357 0.124982 -0.676723 0.057083 0.552571 0.370522 -0.484140 -0.092103 0.165021 -0.681935 0.596600 -1.305727 -0.224923 -0.186906 0.649227 -0.232606 0.250615 0.700150 -0.055396 -0.152671 0.309010 -0.258520 -0.370107 0.318307 0.604190 -0.020857 0.101919 -0.058020 -0.445977 -0.029781 0.547358 -0.906442 -0.163075 0.249169 0.168476 0.219837 -0.294849 0.485067 -0.925480 0.241717 -0.203827 -0.256354 0.230291 0.603093 -0.020101 -0.058007 0.232194 0.057124 0.294924 -0.469872 0.421150 -0.321906 -0.281869 0.002670 -0.028621 0.112593 0.273606 
3471 0.660064 -0.235659 -0.038124 0.169226 0.080236 0.444009 0.307956 -0.497562 -0.012625 -0.441274 0.193154 -0.505474 -0.223972 0.518082 -0.282445 -0.588149 -0.529934 -0.249922 0.528998 0.268538 -0.739802 -0.493101 -0.719050 -0.247402 -0.033802 -0.144564 -0.277565 0.235128 -0.104974 -0.407186 -0.010982 -0.188534 0.196889 0.007316 0.152736 -0.998685 0.430900 -0.474765 -0.038009 -0.528455 -0.288027 -0.177119 -0.173892 0.185420 0.122661 -0.084993 0.057892 -0.313627 -0.150023 -0.191787 0.300785 0.396575 0.048751 -0.343280 0.128536 -0.276579 0.589226 0.056597 0.046053 0.367795 -0.415232 0.209014 -0.173029 -0.006166 0.179307 -0.239253 0.534045 -0.484273 0.161400 -0.507094 -0.340811 0.364096 -0.017483 -0.336503 -0.358125 0.285837 -0.513118 0.486657 -0.151971 0.179286 -0.508905 0.030382 -1.458487 -0.027295 -0.193117 -0.228741 -0.079499 0.476825 0.568335 -0.063980 -0.396464 -0.594726 0.165393 0.578671 0.591331 -0.060678 0.069420 0.513418 -0.054491 0.535029 0.056708 -0.071029 -0.545227 -0.079001 -0.131368 0.149046 0.226782 0.244360 0.309498 -0.157663 -0.515785 -0.410730 -0.865731 -0.162992 0.259577 -0.053213 0.559509 -0.076378 -0.284052 0.313701 0.038474 0.079986 0.780012 -0.108961 0.152920 0.349294 -0.405872 0.093731 
1225 0.078894 -0.194829 0.033834 -0.065590 -0.394386 -0.040978 -0.412174 -0.735535 0.558344 0.246256 -0.230040 -0.096542 0.579463 0.250967 0.308895 0.144589 0.070602 0.719412 1.108554 0.024761 -0.091764 -0.126211 0.015686 -0.427563 -0.035439 -0.048166 -0.159281 -0.284069 0.025456 -0.392800 -0.217664 -0.274149 -0.507592 0.235616 0.278375 -0.449663 -0.530744 -0.303054 0.175825 0.348774 0.221068 -0.066190 0.294092 -0.555669 -0.016446 -0.411818 0.171276 0.645817 0.411508 0.179770 0.190564 0.541943 0.196809 0.005943 0.204530 -0.239246 0.345255 -0.055059 0.341570 0.058832 0.475913 -0.497260 -0.120999 -0.120838 0.479826 0.010131 -0.308883 -0.171494 0.453059 -0.099549 0.316412 -0.151881 0.080612 0.418348 -0.304327 0.362406 -0.207385 0.306022 0.318682 -0.298448 -0.819133 -0.088471 -1.597788 0.212306 0.382106 0.094767 -0.459071 -0.688834 0.490196 0.302853 0.215642 0.575422 0.005104 -0.356955 -0.087706 0.084939 0.297307 0.405444 0.181761 -0.687696 0.691001 0.623999 0.093131 -0.125611 0.058541 0.504061 0.125441 0.060767 -0.106984 0.147935 0.149473 -0.290903 0.266254 0.263236 0.315215 0.747916 -0.097434 -0.166180 0.270619 0.322136 0.372133 0.454377 0.095521 -0.070946 -0.030765 -0.041055 0.454392 -0.283115 
1374 0.105030 0.370452 -0.284903 0.261671 -0.456006 0.069526 -0.259292 -0.984886 -0.085615 -0.096632 0.205928 -0.547619 -0.195217 -0.094619 -0.649605 0.357637 -0.054972 0.289378 -0.400953 -0.212985 -0.141566 0.001156 -0.365012 0.637850 0.038047 0.172655 0.027454 0.528943 0.368487 0.681449 -0.031066 -0.619220 -0.125677 0.024333 -0.146491 -0.150727 -0.085252 -0.009620 0.378326 -0.226671 -0.210943 0.279828 -0.555722 0.283664 0.092930 0.375760 -0.302574 -0.296657 0.100074 0.079244 0.411003 0.116886 -0.146391 0.401831 -0.037878 0.400920 0.703346 0.017579 0.196110 0.363985 -0.170509 -0.139167 -0.166072 -0.091459 0.008531 -0.125232 0.056496 -0.078175 0.088372 0.049019 0.113554 -0.162281 -0.283060 -0.246704 0.111608 -0.027665 0.297154 0.317049 -0.365069 0.615201 0.215134 0.297887 -1.190747 0.322283 0.116289 -0.398943 0.540788 -0.286299 0.671095 0.012988 -0.227053 0.146140 -0.794742 0.570010 0.062948 0.376147 0.078769 -0.353502 0.608494 -0.295822 -0.150679 0.747678 -0.564113 -0.180785 0.239073 0.839064 -0.593292 -0.011614 -0.267387 -0.507240 -0.151331 -0.203745 0.278655 0.242063 -0.179842 0.739447 0.262898 0.796757 -0.652749 -0.131252 -0.092147 -0.106050 0.009301 0.331473 -0.687399 0.193676 -0.651006 -0.678347 
750 0.024087 0.012920 0.108245 0.161781 -0.333777 0.641019 0.212868 -0.640432 -0.072243 -0.007420 -0.174402 -0.804276 0.276382 -0.215435 -0.480411 -0.378255 -0.403146 -0.488799 0.749815 0.256528 -0.275200 -0.094693 -0.250855 0.155567 -0.006664 0.854947 -0.339505 -0.183769 -0.440832 0.403410 -0.343066 -0.253792 -0.089759 0.256434 0.575853 -0.320068 -0.311569 0.230842 0.333624 -0.525789 -0.529013 0.123156 -0.108692 -0.556879 0.519267 0.199877 0.369610 0.472905 0.303487 0.147042 -0.447928 0.694068 -0.470583 -0.765130 -0.091784 0.136873 0.431962 -0.348946 0.038929 0.503983 0.026589 -0.584892 0.599832 0.597025 0.166793 0.250797 0.089831 -0.311458 -0.504011 -0.537662 0.434252 -0.639621 -0.027550 0.353567 -0.360524 -0.417069 -0.205098 0.265392 0.376560 0.330666 -0.000796 0.118968 -0.897821 -0.281295 -0.273980 0.099680 0.248520 -0.852853 0.537772 0.716495 0.137731 -0.030188 0.239241 0.086920 0.102363 0.059257 0.128572 0.297163 0.275045 0.148854 0.259649 0.368578 -0.377177 -0.640266 -0.219457 0.004960 -0.266705 -0.118094 -0.180147 0.091697 0.128332 -0.161912 -0.021055 0.043483 0.092265 -0.057851 -0.050517 -0.053665 -0.192237 -0.065243 -0.024184 0.525574 -0.010737 0.212317 0.108013 -0.117971 -0.011924 -0.252027 
1394 0.219156 0.191979 -0.134339 -0.185190 -0.209149 0.272699 0.610626 -0.805940 -0.286077 0.575955 0.480964 -0.233368 0.394102 -0.251150 -0.249555 0.279138 0.125657 0.158910 -0.227962 0.269453 0.181097 0.408536 -0.435706 -0.015779 -0.518201 -0.256593 -0.020969 -0.170795 0.272374 0.409308 0.071589 0.253147 0.070940 -0.540170 -0.403712 -0.148841 -0.747678 0.686497 -0.286245 -0.456213 -0.170940 -0.171498 -0.037083 0.297485 -0.083981 0.683111 -0.131787 -0.179378 0.500946 0.355015 0.306313 0.149017 -0.642010 0.590568 0.101518 0.427077 0.397936 -0.214537 0.455783 0.367956 -0.321661 -0.141788 -0.474478 0.541520 0.130993 -0.045076 0.247972 -0.171926 0.120070 0.213202 -0.029424 -0.251982 0.120836 -0.145103 0.481053 -0.004346 0.216467 0.077613 -0.048485 -0.185626 0.241032 0.209103 -1.288595 -0.064008 -0.141498 -0.149908 0.479195 0.347538 0.028361 -0.009457 0.090807 0.114504 0.063689 0.100629 0.809812 0.546788 0.211480 0.127661 0.366128 -0.437456 0.213908 0.942469 -0.086839 -0.621971 -0.332268 0.432193 0.074385 0.381361 -0.193508 0.155054 -0.140902 0.174052 0.402183 0.091668 -0.103288 0.683072 0.603644 0.083616 -0.079265 0.156329 -0.025375 0.338461 0.205047 -0.333373 0.020120 0.074133 -0.105012 -0.226595 
590 0.072990 -0.288300 -0.105468 0.001002 0.112406 0.057076 0.038053 -0.606564 0.315123 0.221649 0.020232 -0.613802 -0.211858 -0.166928 -0.215224 -0.470504 -0.545010 -0.202749 0.796024 0.157323 -0.331658 -0.177800 0.039300 0.410818 0.324454 0.572621 0.232933 -0.732929 -0.080025 0.381589 -0.856364 -0.416521 -0.087118 -0.623747 -0.095111 -0.251202 -0.052970 -0.082314 -0.409078 0.155427 -0.009228 -0.239639 -0.533217 -0.238145 -0.266173 0.267461 -0.145586 0.530152 1.100761 -0.136036 0.079988 0.430028 -0.185135 -0.545617 0.822362 -0.081468 -0.254581 0.267443 -0.527233 0.000559 0.447337 -0.549324 0.547551 0.239302 -0.484409 0.238581 0.544215 0.161889 -0.330766 -0.267525 0.199530 -0.385226 -0.043012 -0.267605 -0.020291 -0.710285 -0.478225 -0.086560 0.062089 -0.074769 0.125635 0.128966 -0.942419 0.090125 0.081507 -0.559439 -0.160263 -0.271013 0.687222 0.433951 0.023568 -0.179854 -0.090926 0.086067 0.120838 -0.021374 0.307984 -0.136202 -0.241256 0.530019 -0.562634 1.184200 -0.353607 0.146087 0.170233 -0.103272 -0.021243 -0.118697 0.361147 0.247523 -0.195040 0.188630 -0.563573 0.159584 0.291540 0.131827 -0.161874 0.016215 -0.095931 0.186723 0.173207 0.679752 0.369950 -0.343502 0.528434 -0.608294 0.495178 0.548363 
1784 -0.171173 -0.763965 0.631213 -0.146455 -0.691734 0.031887 -0.047424 0.047074 -0.493606 0.329191 -0.464912 -0.053183 -0.275836 -0.368776 -0.296589 0.125696 -0.096307 0.130084 -0.009681 0.330601 0.038905 0.234573 0.127311 -0.464180 -0.410730 0.328689 -0.071472 0.348930 0.310723 -0.017332 -0.415208 -0.016977 -0.505004 -0.239627 -0.197225 -0.680754 0.111417 -0.004784 -0.191397 0.554833 0.486928 -0.066205 -0.171284 -0.309984 -0.002833 0.434798 0.336895 -0.216849 -0.019807 0.624022 -0.331132 -0.053098 0.063449 -0.086367 0.106755 0.059197 -0.036475 -0.159760 -0.294039 0.543972 -0.377292 -0.391332 -0.569848 -0.400578 -0.280270 0.613986 0.295710 0.312290 0.140849 0.370560 -0.054626 0.510837 0.264721 -0.189056 0.254873 0.156365 -0.132175 -0.128417 0.073163 0.313889 0.386115 0.164658 -1.765826 0.091663 -0.423821 -0.545213 -0.155440 -0.317019 0.380152 0.198931 -0.050517 0.064061 0.637019 0.270828 0.326165 0.524664 0.374950 0.053795 0.109503 -0.714599 0.232982 0.257621 -0.650101 0.033888 -0.264918 -0.519915 0.060663 0.193647 0.046204 0.077544 -0.424316 0.112356 0.457759 0.608975 -0.319493 0.290868 -0.342517 0.228480 0.115932 0.224925 -0.213422 -0.113435 -0.043409 0.457739 -0.128985 -0.639655 -0.530927 -0.342561 
2959 -0.119229 -0.062492 -0.279808 0.123596 -0.338561 -0.084131 -0.399790 -0.735755 0.306592 0.716682 -0.309865 -0.659977 0.141149 -0.436950 -0.047030 0.279246 0.376135 0.103763 1.028484 -0.418825 -0.037172 -0.458854 0.126566 -0.442601 -0.595523 -0.116689 -0.484585 0.023071 -0.092376 -0.534033 -0.421815 -0.188286 0.349441 0.071262 0.465261 0.194411 -0.159990 -0.317099 -0.110570 -0.494412 0.443245 -0.031352 0.580844 -0.335404 -0.410497 -0.327021 0.480765 0.244040 -0.015456 0.087518 0.088677 0.256201 -0.515623 -0.633552 -0.121826 0.423601 0.728318 -0.558908 0.344534 0.069877 -0.017919 -0.406121 -0.085260 -0.449814 -0.283347 0.134902 -0.294844 0.205180 0.340993 -0.096250 0.068978 -0.427384 0.797062 0.539938 -0.140387 -0.302080 -0.054002 -0.114661 0.220837 -0.140172 -0.211816 -0.344138 -0.772863 -0.084132 -0.058526 0.392509 -0.627934 0.140735 0.596770 0.641369 -0.196210 0.101061 -0.132792 0.031442 -0.248098 0.253399 0.396269 0.064782 -0.450902 -0.583871 0.646329 0.387668 0.046217 0.274772 0.078691 -0.079214 -0.024320 -0.206620 0.383983 -0.121651 -0.159303 0.211946 0.708596 0.303510 0.431468 0.215009 -0.248201 0.593240 -0.024752 0.704658 -0.219881 0.142856 0.429160 0.499455 -0.129573 0.035542 0.411629 -0.371712 
2174 0.151492 0.023015 0.272572 -0.143588 -0.233980 -0.029147 0.329822 -1.035679 -0.493553 0.144093 0.683584 -0.265457 0.216249 0.452106 -0.209145 0.098826 -0.296856 0.406045 0.099222 0.142569 -0.250665 0.036903 -0.421488 0.165842 -0.168165 0.166436 0.311350 0.240434 0.126810 0.389163 -0.612152 0.079071 0.004676 -0.207992 -0.496228 -0.302246 0.166477 0.359267 0.444896 -0.361386 -0.138293 -0.099194 -0.264593 0.218400 0.456459 0.267869 0.095885 0.065959 0.632787 -0.182680 0.338942 -0.332045 -0.158366 0.178563 0.093390 0.261541 0.122136 0.433087 0.562341 0.213282 0.327535 -0.459717 -0.179760 -0.067016 0.322170 -0.168143 0.183621 0.269147 0.331410 0.162769 -0.458394 0.257004 -0.242256 -0.074773 -0.411102 -0.447432 -0.009820 0.527118 0.155005 -0.349406 -0.449395 0.841501 -0.324102 0.088396 -0.156941 0.203208 0.119478 0.413983 1.048010 -0.053253 -0.167036 0.295133 -0.308096 0.124235 -0.110516 1.193869 -0.492982 -0.396692 0.221392 0.025673 0.150961 0.721555 -0.586838 -0.397358 0.194658 0.610102 -0.348444 -0.085578 -0.209033 -0.027075 0.517858 0.100040 -0.262163 0.375437 -0.203324 0.784738 0.326213 -0.119747 -0.715255 0.786113 -0.106692 0.198393 -0.519295 0.156881 0.246891 0.062124 -0.554634 -0.632660 
908 0.886910 0.237498 0.315907 -0.105772 0.372100 -0.075961 -0.038107 -0.305497 0.183863 -0.282822 0.220038 -0.549357 0.092492 0.009861 -0.503773 -0.273142 -0.282809 -0.162861 0.950147 -0.206845 -0.396530 0.296076 0.241094 -0.217887 0.588380 0.492080 0.275833 -0.045511 -0.486699 0.125381 0.164279 0.126079 -0.011993 0.025692 -0.756060 -0.692236 0.035057 0.315049 -0.074599 -0.422830 -0.204463 0.401538 -0.206447 -0.782985 0.573551 0.040360 -0.201878 0.167241 0.404453 -0.065028 -0.432860 0.682892 -0.200125 -0.467357 0.487948 0.167986 -0.015326 0.457002 -0.109957 0.367248 -0.093540 0.034084 0.178287 0.422564 0.358826 0.614341 -0.141673 0.103189 0.088189 -0.610426 0.559574 -0.299224 -0.590764 -0.198838 -0.018948 -0.011841 -0.605843 0.220375 0.108217 0.413830 -0.296131 0.043927 -0.790746 -0.037125 0.233274 -0.025910 -0.117638 0.421008 0.964231 0.162627 -0.226105 -0.299507 -0.126134 -0.170563 -0.173381 0.610260 -0.032172 0.458184 -0.122623 0.012369 -0.640859 0.935963 -0.339315 -0.259849 0.179708 -0.496659 0.007411 0.525286 0.124892 0.152276 -0.546841 0.408718 0.056975 0.043077 0.144614 -0.155706 0.360277 0.157739 -0.064642 0.169714 -0.147741 1.020437 0.193164 0.077188 -0.322619 -0.358752 -0.466173 -0.002534 
2804 0.449515 0.034804 0.391502 0.572157 -0.405337 -0.102028 0.502840 -0.378684 0.019004 -0.280078 0.085223 -0.513723 -0.368757 0.315540 -0.396872 -0.401637 0.031642 0.105325 0.334356 -0.035714 -0.792151 -0.378951 -0.821000 0.376968 -0.183598 -0.207723 0.248320 -0.184505 -0.112769 -0.734259 -0.288977 0.258658 0.345435 0.067083 0.208068 -0.567253 0.646634 -0.039326 -0.325725 -0.017969 0.229681 -0.495060 0.667003 -0.170725 -0.332682 0.023037 -0.257259 -0.305142 -0.264077 -0.034266 0.392948 0.144208 0.583405 -0.279901 0.163255 -0.274738 0.297261 0.195040 0.251926 0.017382 -0.063069 0.104198 -0.246215 -0.086107 0.276464 -0.159829 0.195262 -0.177402 0.433637 -0.092319 0.327222 0.053470 -0.378899 -0.448833 -0.331198 -0.169487 -0.099741 0.174388 0.013045 0.313480 0.222574 0.157740 -1.216943 -0.199871 -0.213088 -0.271203 -0.592003 0.260739 0.466881 0.066492 0.312945 -0.207403 -0.225955 0.413363 0.359252 -0.232737 0.476419 0.406344 -0.095820 0.307093 0.500036 0.672786 -0.465204 -0.436176 -0.165695 -0.373817 0.373983 0.136596 0.457783 -0.388348 -0.331089 0.550603 -0.170352 -0.172239 0.276752 -0.154978 0.082006 -0.181934 0.419369 -0.159107 0.201490 0.399366 0.590757 0.152664 -0.136040 -0.301412 -0.503776 0.064251 
223 0.257069 0.386347 0.276090 0.260390 -0.137244 -0.150453 0.363504 0.089365 0.401866 -0.048738 0.637871 -0.665229 -0.008798 0.203210 -0.105029 -0.174362 0.316905 0.115054 0.620378 0.430552 -0.841210 0.391372 0.090712 -0.128245 0.322372 -0.542499 -0.275160 0.393902 -0.016953 -0.342057 -0.759471 0.546025 -0.322589 0.332295 0.099240 -0.248716 0.773913 0.044611 -0.379696 -0.554685 0.178863 -0.023529 0.103892 0.448203 -0.440016 0.520944 0.120723 -0.320514 -0.193357 -0.529792 -0.165553 0.088654 0.084181 -0.308767 0.452575 -0.306375 0.990206 0.082242 0.012523 -0.084447 0.073788 -0.237291 0.196720 0.497248 0.208955 -0.252627 0.578313 -0.368472 0.048619 -0.445035 0.056109 0.441987 -0.392219 -0.259148 -0.016552 -0.397580 0.405681 0.376506 -0.019949 0.412053 -0.019650 0.091401 -1.375682 0.412406 0.023247 -0.165729 -0.238301 0.600704 0.737880 0.267409 -0.018463 -0.455506 -0.025421 0.221876 0.191590 -0.139881 -0.200290 -0.062049 0.053520 0.614963 0.251033 0.316726 -0.064170 0.010314 -0.025646 -0.371150 -0.125209 -0.154467 0.032530 -0.161916 0.134775 0.310640 0.049225 0.617131 0.503295 -0.519400 0.056296 -0.096120 -0.251489 -0.198361 -0.136486 0.302584 0.602606 0.203960 0.236668 -0.710136 -0.047986 -0.145155 
